
\data\
ngram 1=11868
ngram 2=59481
ngram 3=16744
ngram 4=13787
ngram 5=12082

\1-grams:
-3.304073	'	-0.2683614
-2.064677	''	-0.6508104
-4.815956	'd	-0.3095731
-4.815956	'll	-0.2191342
-3.719046	'm	-0.292327
-4.075593	're	-0.280135
-2.144783	's	-0.2165464
-3.794767	've	-0.3292568
-2.17647	(	-0.4620362
-2.17647	)	-0.6978139
-1.364323	,	-0.4361608
-2.980266	-	-0.1948463
-3.063908	--	-0.2381855
-1.464546	.	-2.981679
-4.213896	..	-0.9354016
-3.755258	...	-1.001485
-4.815956	.........	-0.2208528
-5.116986	.313	-0.2187877
-5.116986	.80	-0.2208661
-4.639865	0	-0.2601263
-5.116986	0.03	-0.2200193
-4.815956	0.05	-0.3110259
-5.116986	0.07	-0.2200193
-3.912866	0.1	-1.229599
-4.418016	0.2	-0.435036
-5.116986	0.25	-0.2200193
-5.116986	0.25-point	-0.22074
-5.116986	0.26	-0.2200193
-5.116986	0.27	-0.2200193
-4.213896	0.3	-0.9533924
-5.116986	0.38	-0.2016818
-5.116986	0.3918/28	-0.2020284
-5.116986	0.3950/60	-0.2208661
-4.418016	0.4	-0.5812558
-5.116986	0.4095	-0.2104379
-5.116986	0.4588/98	-0.2208661
-5.116986	0.4595/605	-0.2020284
-4.815956	0.47	-0.3103783
-5.116986	0.48	-0.220667
-4.639865	0.5	-0.5108411
-4.338835	0.6	-0.4810001
-5.116986	0.65	-0.2200193
-4.514926	0.6669	-0.2454403
-5.116986	0.6671	-0.2179669
-5.116986	0.6673	-0.2208462
-5.116986	0.6693	-0.2131276
-4.815956	0.67	-0.3103783
-5.116986	0.7	-0.2200193
-5.116986	0.70	-0.2104379
-4.815956	0.8	-0.2007933
-5.116986	0.86	-0.2203814
-5.116986	0.9	-0.2200193
-5.116986	0.92	-0.2200193
-5.116986	0.97	-0.2200193
-4.514926	00	-0.5114971
-5.116986	000	-0.2020284
-4.815956	0020	-0.3111487
-5.116986	0500	-0.2207897
-5.116986	0515	-0.2207897
-4.639865	0550	-0.5116115
-5.116986	0720	-0.2207897
-3.886537	1	-0.6144867
-4.116986	1,000	-0.2690548
-4.815956	1,023	-0.2204578
-5.116986	1,027	-0.2187877
-5.116986	1,044	-0.2199029
-5.116986	1,050	-0.220667
-5.116986	1,075	-0.2104379
-5.116986	1,110	-0.2203183
-5.116986	1,157,350	-0.2206769
-5.116986	1,171	-0.2207964
-5.116986	1,180	-0.220667
-5.116986	1,184	-0.2104379
-4.514926	1,200	-0.2630923
-5.116986	1,332	-0.2203814
-5.116986	1,350	-0.2207798
-5.116986	1,400	-0.2208395
-5.116986	1,482	-0.2208594
-4.639865	1,500	-0.2164816
-5.116986	1,557.72	-0.2205541
-5.116986	1,600	-0.2206703
-5.116986	1,608.92	-0.1953286
-5.116986	1,643.20	-0.2207134
-5.116986	1,700	-0.220667
-5.116986	1,700-km	-0.2207566
-5.116986	1,710	-0.220667
-5.116986	1,770	-0.220667
-4.815956	1,900	-0.2199262
-5.116986	1,980	-0.220667
-5.116986	1-0	-0.2208627
-4.815956	1-1	-0.1998542
-4.815956	1-1/2	-0.3007969
-4.639865	1-1/4	-0.5012597
-5.116986	1-1/8	-0.2104379
-5.116986	1-22	-0.2016818
-5.116986	1-3	-0.2208594
-5.116986	1-3/8	-0.2104379
-5.116986	1-5/8	-0.2104379
-5.116986	1.	-0.2208561
-5.116986	1.01	-0.2200193
-5.116986	1.025	-0.2206603
-5.116986	1.074	-0.2203881
-4.639865	1.1	-0.2787552
-5.116986	1.10	-0.2203814
-4.418016	1.2	-0.4188209
-5.116986	1.20	-0.2203814
-4.815956	1.25	-0.3110193
-5.116986	1.29	-0.2200193
-5.116986	1.3	-0.2206603
-5.116986	1.34	-0.2200193
-5.116986	1.35	-0.2206603
-5.116986	1.353	-0.2203881
-5.116986	1.36	-0.2200193
-5.116986	1.39	-0.2203881
-5.116986	1.4	-0.2200193
-5.116986	1.40	-0.2206603
-4.514926	1.4245	-0.4158865
-4.815956	1.4255	-0.2056578
-4.815956	1.4260	-0.3111819
-4.815956	1.4262	-0.1986478
-5.116986	1.4277	-0.2208229
-5.116986	1.4295	-0.2208229
-5.116986	1.48	-0.220667
-5.116986	1.4985	-0.2203814
-5.116986	1.4990	-0.2203814
-4.815956	1.4995	-0.2159451
-4.639865	1.5	-0.2782836
-4.815956	1.50	-0.2202785
-5.116986	1.52-billion-dollar	-0.2208395
-4.338835	1.6	-0.390287
-4.639865	1.612	-0.5114821
-5.116986	1.64	-0.2131276
-5.116986	1.65	-0.2207665
-5.116986	1.6650	-0.2131276
-5.116986	1.6667	-0.1953286
-4.271888	1.6675	-0.3002923
-4.815956	1.6680	-0.3111255
-5.116986	1.6685	-0.218861
-5.116986	1.6690	-0.2207665
-4.815956	1.6695	-0.3110359
-4.815956	1.6705	-0.2102408
-5.116986	1.6710	-0.2131276
-5.116986	1.6720	-0.2207665
-5.116986	1.6725	-0.2207665
-4.418016	1.6730	-0.363186
-5.116986	1.6750	-0.2207665
-5.116986	1.7	-0.2122453
-5.116986	1.9	-0.2200193
-5.116986	1.90	-0.2203814
-3.473533	10	-0.2944608
-4.815956	10,000	-0.2206271
-5.116986	10,000-us-dollar	-0.2207698
-5.116986	10-billion-dollar	-0.2208594
-5.116986	10-second	-0.2208627
-4.514926	10-year	-0.2205873
-5.116986	10.5	-0.2200193
-5.116986	10.50	-0.2104379
-5.116986	10.75	-0.2200193
-5.116986	10.8	-0.2200193
-3.654588	100	-0.2803047
-4.418016	100,000	-0.2910057
-5.116986	100,000-dollar	-0.2208229
-5.116986	100-meter	-0.2179669
-5.116986	100-percent	-0.2208661
-5.116986	100-share	-0.2207931
-5.116986	100-yen	-0.220803
-5.116986	100th	-0.2208263
-5.116986	101	-0.2174523
-4.639865	103	-0.2789642
-5.116986	103.25	-0.218861
-4.815956	104-3/8	-0.2013523
-5.116986	104.07	-0.220667
-4.639865	104.10	-0.5114887
-4.514926	104.15	-0.5114937
-4.639865	104.20	-0.1826735
-4.418016	104.22	-0.435531
-5.116986	104.30	-0.2057059
-4.815956	104.58	-0.3110259
-5.116986	104.65	-0.220667
-4.815956	104.70	-0.3110259
-5.116986	104.73	-0.220667
-4.639865	104.85	-0.2595751
-4.815956	105.35	-0.2120388
-5.116986	106	-0.2020284
-5.116986	108	-0.2208627
-5.116986	108-7/8	-0.2057059
-5.116986	108.984	-0.2020284
-5.116986	108th	-0.2207599
-4.639865	109	-0.2055375
-5.116986	109.235	-0.2016818
-5.116986	109.823	-0.2016818
-3.940895	11	-0.2690433
-5.116986	11.30	-0.218861
-5.116986	11.6	-0.2200193
-5.116986	110	-0.2208063
-5.116986	110.309	-0.2016818
-5.116986	1100	-0.2207897
-5.116986	112,000	-0.2206769
-5.116986	112.2	-0.2203881
-5.116986	112.5	-0.2208661
-5.116986	112.674	-0.2016818
-5.116986	113	-0.2207798
-5.116986	113.085	-0.2016818
-5.116986	113.409	-0.2016818
-5.116986	114	-0.2187877
-5.116986	115	-0.2203814
-5.116986	115-120	-0.2020284
-5.116986	115.221	-0.2016818
-5.116986	115.422	-0.2016818
-5.116986	116.3	-0.2203881
-5.116986	117.785pts	-0.2016818
-5.116986	117.8	-0.2203881
-5.116986	118	-0.2208594
-5.116986	118,700	-0.2109202
-5.116986	119-1/4	-0.2205541
-5.116986	11:00	-0.2208263
-5.116986	11th	-0.2131276
-3.143858	12	-0.8478963
-5.116986	12,000	-0.2208263
-5.116986	12-16	-0.2016818
-4.815956	12-day	-0.2016784
-5.116986	12-foot	-0.2208594
-5.116986	12-game	-0.2207864
-5.116986	12-month-old	-0.2208661
-5.116986	12-year-old	-0.2208661
-5.116986	12.36	-0.2207267
-5.116986	12.4	-0.2200193
-5.116986	12.5	-0.2200193
-4.815956	120	-0.2207831
-5.116986	120,000	-0.2206769
-5.116986	120.50	-0.2057059
-5.116986	123	-0.2122453
-5.116986	124	-0.2016818
-4.815956	125	-0.2186543
-5.116986	1250	-0.2207897
-5.116986	126	-0.2204147
-4.815956	127	-0.1952407
-5.116986	12:55	-0.2208263
-5.116986	12mai94	-0.2020284
-5.116986	12th	-0.2122453
-2.636979	13	-1.449653
-5.116986	13,500	-0.2179669
-5.116986	13-5-19-2	-0.2016818
-5.116986	13-day	-0.2207864
-4.639865	13-month	-0.2788249
-5.116986	13-year-old	-0.2208661
-5.116986	13.1	-0.2200193
-5.116986	13.2	-0.2207267
-5.116986	13.5	-0.2203881
-4.815956	130	-0.2205973
-4.514926	130,000	-0.418766
-5.116986	132,516	-0.2206769
-4.815956	135	-0.2201788
-5.116986	137	-0.2182574
-5.116986	137.22	-0.2207267
-5.116986	138	-0.1953286
-5.116986	13th	-0.2131276
-3.639865	14	-0.5386387
-4.815956	14,258	-0.3110359
-5.116986	14-3-29-0	-0.2020284
-5.116986	14-5-25-0	-0.2016818
-5.116986	14-member	-0.2207964
-4.815956	14-month	-0.3111919
-5.116986	14-year-old	-0.2207997
-5.116986	14-year-olds	-0.2199063
-5.116986	14.02	-0.2203881
-5.116986	14.09	-0.2208296
-4.639865	140	-0.2206238
-5.116986	140,000	-0.2208528
-4.639865	141	-0.2056853
-4.815956	142	-0.1934422
-5.116986	144	-0.2208495
-5.116986	144,000	-0.2198497
-5.116986	145	-0.2020284
-5.116986	145,000	-0.2208627
-5.116986	146	-0.2057059
-5.116986	147	-0.2208661
-4.815956	147.70	-0.1948992
-4.639865	148	-0.2784198
-5.116986	148.32	-0.2104379
-4.639865	14th	-0.20562
-5.116986	14th-century	-0.2208594
-3.444888	15	-0.3729466
-4.213896	15,000	-0.3844207
-5.116986	15,000-tonne	-0.2208362
-5.116986	15-10	-0.2016818
-5.116986	15-20	-0.2200193
-4.815956	15-5	-0.2016679
-4.815956	15.4	-0.3103783
-4.815956	15.7	-0.3107471
-5.116986	15/1994	-0.218861
-4.514926	150	-0.209979
-5.116986	150,000	-0.2205807
-4.639865	1500	-0.5116115
-5.116986	151	-0.2174523
-5.116986	152.1	-0.2208561
-5.116986	153.6	-0.2203881
-5.116986	155	-0.2020284
-5.116986	155-4	-0.2179669
-5.116986	156	-0.2197699
-4.815956	156.25	-0.1986478
-5.116986	156.89	-0.220667
-5.116986	157.17	-0.220667
-4.815956	1572	-0.2920408
-4.639865	158	-0.275537
-5.116986	158,000	-0.2203814
-4.037805	16	-0.2494387
-5.116986	16,000	-0.2203814
-5.116986	16-5-55-3	-0.2016818
-5.116986	16-day	-0.2208362
-5.116986	16-dollars-per-barrel	-0.2207831
-5.116986	16-dollars-per-tonne	-0.2207698
-5.116986	16-goal	-0.2208462
-5.116986	16-year-old	-0.2208661
-5.116986	16.11	-0.2200193
-4.815956	160	-0.2175292
-5.116986	160,000	-0.2206769
-5.116986	162.95	-0.2206603
-4.815956	165	-0.2194139
-5.116986	1655	-0.2207897
-5.116986	16:55	-0.2208263
-5.116986	16th	-0.2208296
-3.940895	17	-0.3031981
-5.116986	17,000	-0.2179669
-4.815956	17,593	-0.3111885
-5.116986	17,625	-0.2206769
-5.116986	17-28	-0.2205541
-4.639865	170	-0.205431
-5.116986	1700	-0.2207897
-4.815956	171	-0.3103783
-5.116986	175	-0.2208661
-5.116986	176	-0.2208495
-5.116986	177-6	-0.2208528
-5.116986	179.28	-0.2205541
-5.116986	1791	-0.2016818
-4.815956	17th	-0.3110857
-4.037805	18	-0.2351295
-5.116986	18,000	-0.2207101
-5.116986	18-year	-0.2208229
-5.116986	18-year-old	-0.2177465
-5.116986	18.5	-0.2200193
-4.815956	18.6	-0.3110857
-4.639865	180	-0.2205574
-5.116986	182	-0.2207798
-5.116986	183,750	-0.2207798
-5.116986	1830	-0.2207897
-4.815956	1835	-0.2195304
-5.116986	185	-0.2020284
-5.116986	1870s	-0.2203017
-5.116986	188.83	-0.2057059
-4.338835	19	-0.2699134
-5.116986	19,771.75	-0.2207267
-5.116986	19-19	-0.2208627
-5.116986	19-20	-0.2016818
-5.116986	19.54	-0.2206603
-5.116986	190-200	-0.2020284
-5.116986	1902	-0.2104379
-5.116986	191	-0.2179669
-5.116986	1910	-0.2057059
-5.116986	192	-0.2203814
-5.116986	1920s-era	-0.2208561
-5.116986	1927	-0.2208627
-4.815956	1933	-0.2960649
-5.116986	1939	-0.2057059
-5.116986	1945	-0.2057059
-5.116986	1947	-0.2207798
-4.418016	1949	-0.2235242
-5.116986	1950	-0.2179669
-5.116986	1955	-0.2016818
-5.116986	1957	-0.218861
-5.116986	1958	-0.2179669
-4.338835	1960	-0.3563496
-4.639865	1960s	-0.2557914
-5.116986	1961	-0.2016818
-5.116986	1962	-0.2194938
-5.116986	1963	-0.2208495
-4.639865	1964	-0.2439256
-4.815956	1965	-0.3112085
-4.815956	1966	-0.3098528
-5.116986	1966-1970	-0.2207931
-4.639865	1967	-0.2786025
-5.116986	1968	-0.2104379
-5.116986	1969	-0.2179669
-4.815956	1970	-0.2054276
-5.116986	1970-1974	-0.2131276
-4.338835	1970s	-0.4620404
-4.639865	1971	-0.1976795
-4.815956	1972	-0.1935871
-4.639865	1973	-0.2516919
-4.514926	1974	-0.2444601
-5.116986	1974-1978	-0.2179669
-4.418016	1975	-0.3478376
-4.418016	1976	-0.3362932
-4.815956	1977	-0.1976866
-4.639865	1978	-0.2637867
-4.514926	1979	-0.2282479
-4.271888	1980	-0.3731827
-4.639865	1980s	-0.253004
-4.815956	1981	-0.2036985
-4.418016	1982	-0.2550499
-4.815956	1983	-0.2016402
-5.116986	1984	-0.2016818
-5.116986	1984-1989	-0.2179669
-4.639865	1985	-0.2516919
-4.418016	1986	-0.2085304
-4.037805	1987	-0.3815118
-5.116986	1987-88	-0.2057059
-4.514926	1988	-0.2052626
-3.669828	1989	-0.4529415
-3.912866	1990	-0.5908273
-3.639865	1991	-0.3833732
-3.548784	1992	-0.6632838
-4.815956	1992-93	-0.2170007
-3.669828	1993	-0.3499084
-4.514926	1993-1994	-0.2026274
-4.213896	1994	-0.238869
-4.815956	1994-1995	-0.2027
-4.815956	1994/95	-0.3083259
-4.338835	1995	-0.2438501
-4.514926	1996	-0.2286473
-4.271888	1997	-0.3610259
-4.815956	1998	-0.2056338
-5.116986	1999	-0.2057059
-5.116986	19th	-0.2208362
-5.116986	1:00	-0.2208528
-4.815956	1:20	-0.3111852
-5.116986	1:30	-0.2208263
-4.815956	1st	-0.3112018
-4.116986	2	-0.1911069
-4.075593	2,000	-0.289034
-5.116986	2,100-dollar-per-tonne	-0.2207831
-5.116986	2,119	-0.2203814
-5.116986	2,130	-0.2203814
-5.116986	2,175	-0.2131276
-4.815956	2,187.00	-0.3110857
-5.116986	2,190.98	-0.2207267
-5.116986	2,200	-0.2203814
-5.116986	2,234	-0.2198497
-5.116986	2,243.63	-0.2207267
-4.639865	2,258.75	-0.5115485
-5.116986	2,300	-0.2057059
-4.815956	2,459	-0.3112018
-5.116986	2,471.3	-0.2208661
-5.116986	2,480.3	-0.2020284
-4.418016	2,500	-0.2435814
-5.116986	2,500-room	-0.2208097
-5.116986	2,646,675	-0.2206769
-5.116986	2,691	-0.2198497
-5.116986	2,697	-0.2131276
-5.116986	2,714	-0.2203814
-5.116986	2,725	-0.2206769
-4.514926	2,800	-0.2617014
-5.116986	2-0	-0.2057059
-4.815956	2-1	-0.2122419
-5.116986	2-1/2	-0.2104379
-5.116986	2-31	-0.2016818
-5.116986	2-year-old	-0.2109202
-5.116986	2.03	-0.2203881
-4.639865	2.1	-0.2776419
-5.116986	2.1376	-0.2208229
-4.815956	2.1386	-0.1986478
-5.116986	2.1421	-0.2208229
-4.639865	2.2	-0.2194472
-5.116986	2.293	-0.2206603
-4.815956	2.3	-0.3103783
-4.639865	2.4	-0.2193939
-5.116986	2.44	-0.2200193
-4.815956	2.497	-0.3110193
-4.815956	2.5	-0.3107471
-4.418016	2.5-mile	-0.5792034
-5.116986	2.50	-0.2208661
-5.116986	2.5003	-0.2207665
-4.815956	2.5004	-0.1986478
-5.116986	2.5070	-0.2207665
-5.116986	2.6	-0.2203881
-5.116986	2.68	-0.2207267
-4.815956	2.7	-0.3103783
-5.116986	2.81	-0.2200193
-5.116986	2.9	-0.2206603
-3.548784	20	-0.3291839
-4.075593	20,000	-0.2415178
-5.116986	20,256	-0.2198497
-5.116986	20,270.75	-0.2207267
-5.116986	20-minute	-0.2205475
-5.116986	20-year-old	-0.2208661
-5.116986	20.7	-0.2200193
-5.116986	20.79	-0.2200193
-3.736775	200	-0.2668406
-3.970858	200,000	-0.410127
-5.116986	200-bed	-0.2207002
-4.514926	2000	-0.3995892
-4.639865	2002	-0.2785161
-4.815956	201	-0.2203416
-5.116986	201-km	-0.2208362
-4.815956	2012	-0.3111487
-5.116986	202	-0.2208263
-5.116986	202-5	-0.2179669
-5.116986	202.6	-0.2020284
-5.116986	204,000	-0.2208661
-5.116986	204km	-0.2208661
-5.116986	2055	-0.2207897
-5.116986	208	-0.2057059
-5.116986	209-6	-0.2208528
-5.116986	209.6	-0.2208661
-4.037805	21	-0.2179541
-5.116986	21,000	-0.2207765
-5.116986	21-year-old	-0.2165553
-5.116986	21.64	-0.2200193
-4.815956	21.7	-0.3110193
-5.116986	210	-0.2208561
-5.116986	2100	-0.2207897
-5.116986	214	-0.2208196
-5.116986	216	-0.2016818
-5.116986	219	-0.2203881
-5.116986	21st	-0.2208296
-4.418016	22	-0.1998264
-5.116986	22,000	-0.2208196
-4.639865	22-year-old	-0.2202751
-5.116986	22.3	-0.2200193
-4.639865	22.7	-0.5112098
-5.116986	22.80	-0.2207267
-4.514926	220	-0.2019279
-4.639865	2200	-0.5116115
-5.116986	2215	-0.2207897
-4.639865	225	-0.2207831
-5.116986	225.749	-0.2207997
-5.116986	226	-0.2104379
-5.116986	226.25	-0.2057059
-5.116986	226.637	-0.2207997
-4.815956	227	-0.3111587
-5.116986	227.969	-0.2207997
-5.116986	228.693	-0.2207997
-3.912866	23	-0.2265765
-5.116986	23,000	-0.2206703
-5.116986	23,100	-0.2206769
-5.116986	23-mile	-0.2179669
-4.815956	23-year-old	-0.3111919
-5.116986	23.6	-0.2200193
-5.116986	23.8	-0.2200193
-5.116986	23.80	-0.2207267
-4.815956	230.403	-0.2178968
-5.116986	230.438	-0.2207997
-5.116986	230.483	-0.2207997
-4.815956	232.482	-0.3111587
-4.815956	232.618	-0.3111587
-5.116986	234	-0.2207997
-5.116986	235.87	-0.2203881
-4.815956	236	-0.2154281
-5.116986	238.62	-0.2203881
-5.116986	239	-0.2205807
-3.838233	24	-0.3258632
-4.639865	24-member	-0.5112066
-4.815956	24-year-old	-0.2189377
-5.116986	24.7	-0.2208594
-5.116986	24.85	-0.218861
-4.639865	240	-0.2788016
-5.116986	241	-0.2104379
-5.116986	242	-0.2179669
-5.116986	244	-0.2208594
-4.639865	245	-0.5116215
-5.116986	247.10	-0.2104379
-5.116986	248.4	-0.2203881
-3.702013	25	-0.3591472
-4.418016	25,000	-0.2206604
-5.116986	25-0	-0.2057059
-5.116986	25-year	-0.2208163
-5.116986	25.50	-0.2206769
-4.338835	250	-0.3412226
-4.418016	250,000	-0.370703
-5.116986	252	-0.2203881
-5.116986	255	-0.2057059
-5.116986	25kg	-0.2057059
-4.271888	26	-0.185415
-5.116986	26,500	-0.2179669
-4.639865	26-29	-0.2788813
-5.116986	26-year-old	-0.2208627
-4.815956	26.9	-0.3103783
-5.116986	260	-0.2208594
-5.116986	261	-0.2057059
-5.116986	264	-0.2208561
-5.116986	266	-0.2057059
-5.116986	267	-0.2057059
-5.116986	267-9	-0.2179669
-5.116986	269,450	-0.2206769
-4.213896	27	-0.3902431
-5.116986	27,905	-0.2206769
-5.116986	27.2	-0.2208627
-5.116986	27.40	-0.2207267
-5.116986	27.51	-0.2207267
-5.116986	27.60	-0.2203881
-4.514926	270	-0.5114573
-5.116986	274	-0.2203881
-5.116986	278	-0.2016818
-5.116986	279	-0.2131276
-5.116986	279.15	-0.2206603
-5.116986	27th	-0.2207864
-4.271888	28	-0.216562
-5.116986	28,000	-0.2208196
-5.116986	28,500	-0.2208196
-5.116986	28.58/68	-0.2020284
-5.116986	28.70/80	-0.2208661
-5.116986	285	-0.2207134
-5.116986	287.96	-0.2203881
-5.116986	288	-0.218861
-4.003043	29	-0.2814741
-5.116986	290	-0.2203881
-5.116986	294	-0.2203881
-5.116986	29th	-0.2131276
-5.116986	2:30	-0.2208528
-5.116986	2nd	-0.2205807
-4.037805	3	-0.2536891
-4.338835	3,000	-0.2013627
-4.514926	3,119.2	-0.2443248
-5.116986	3,134.8	-0.2204943
-5.116986	3,550	-0.2208395
-5.116986	3,650.16	-0.218861
-4.639865	3,652.84	-0.4965277
-4.815956	3,659.68	-0.2960649
-5.116986	3,664.14	-0.2207267
-5.116986	3,808.50	-0.2207267
-5.116986	3-0	-0.2208196
-5.116986	3-31	-0.2016818
-5.116986	3-point	-0.2208561
-5.116986	3-pointers	-0.2057059
-5.116986	3.2	-0.2206603
-4.815956	3.4	-0.3110193
-5.116986	3.4278	-0.2204877
-5.116986	3.4280	-0.2207931
-4.815956	3.4292	-0.2180471
-5.116986	3.4303	-0.2171814
-5.116986	3.4315	-0.2204877
-5.116986	3.5	-0.2200193
-5.116986	3.50	-0.2104379
-5.116986	3.56	-0.2200193
-5.116986	3.6	-0.2200193
-5.116986	3.600/15	-0.2057059
-5.116986	3.6415/30	-0.2104379
-4.815956	3.7	-0.3110857
-4.815956	3.8	-0.3103783
-5.116986	3.9	-0.2200193
-4.815956	3/4	-0.200244
-3.514926	30	-0.3112015
-4.815956	30,000	-0.3111786
-5.116986	30-percent	-0.2208561
-5.116986	30-share	-0.2208661
-4.418016	30-year	-0.4357866
-3.639865	300	-0.3139826
-5.116986	300,000	-0.2208661
-4.639865	301	-0.192657
-5.116986	301.5	-0.2016818
-4.815956	304	-0.3107471
-5.116986	304,000	-0.218861
-5.116986	30th	-0.2208263
-4.075593	31	-0.2632925
-5.116986	31,725	-0.2206769
-4.815956	31-june	-0.3111952
-5.116986	31-year	-0.220803
-5.116986	310	-0.2203881
-5.116986	313.250	-0.2206769
-5.116986	316	-0.2187877
-5.116986	317	-0.2203183
-4.271888	32	-0.2204479
-5.116986	320	-0.2203814
-4.815956	325	-0.2126377
-4.639865	33	-0.2195137
-5.116986	33,333	-0.2203814
-4.815956	33-car	-0.3111686
-4.815956	330	-0.3012792
-5.116986	333.75	-0.2016818
-5.116986	339	-0.2199029
-4.338835	34	-0.2286308
-5.116986	34-second	-0.2207732
-5.116986	342.50	-0.2131276
-5.116986	345,725	-0.2206769
-4.338835	35	-0.259235
-5.116986	35-3/4	-0.2016818
-5.116986	35-55	-0.2208528
-5.116986	35-kilometre	-0.2179669
-5.116986	350	-0.2208495
-5.116986	350,000	-0.2208528
-5.116986	352	-0.2208627
-5.116986	35th	-0.2208362
-4.418016	36	-0.1998229
-5.116986	36.6	-0.2203881
-4.815956	360	-0.2206935
-5.116986	362.619	-0.220813
-5.116986	363	-0.220813
-4.815956	364.50	-0.2130229
-5.116986	364.750	-0.2208661
-5.116986	365.908	-0.220813
-4.815956	368.644	-0.311172
-5.116986	368.700	-0.220813
-5.116986	368.772	-0.220813
-4.639865	37	-0.2208229
-5.116986	37-sq	-0.2057059
-4.815956	371.971	-0.311172
-4.815956	372.188	-0.311172
-5.116986	373	-0.2174523
-5.116986	374	-0.220813
-5.116986	378.5	-0.2200592
-5.116986	379.80/380.30	-0.2057059
-5.116986	379.90	-0.2203814
-4.639865	38	-0.2046431
-5.116986	38,700	-0.2206769
-5.116986	380	-0.2203814
-5.116986	380.70	-0.2203814
-5.116986	380.75	-0.2203814
-5.116986	380.90/381.40	-0.2203814
-4.639865	381	-0.2202087
-5.116986	381.10	-0.2203814
-4.815956	384	-0.311172
-4.116986	386	-1.009604
-4.815956	39	-0.2204246
-5.116986	39-10	-0.2183241
-5.116986	39.05	-0.2208528
-5.116986	390	-0.2122453
-4.815956	391	-0.2180638
-4.815956	392	-0.311172
-5.116986	393	-0.2131276
-5.116986	397	-0.2203814
-3.685622	4	-0.6908832
-3.861714	4,000	-0.3883924
-5.116986	4,500	-0.2206769
-5.116986	4,873,770	-0.2203814
-4.815956	4-0	-0.1948992
-5.116986	4-1	-0.2057059
-5.116986	4-6	-0.2016818
-5.116986	4-68	-0.2016818
-5.116986	4.2	-0.2200193
-5.116986	4.22	-0.2207798
-5.116986	4.39	-0.2200193
-4.514926	4.5	-0.2621611
-5.116986	4.72	-0.2203881
-5.116986	4.75	-0.2200193
-5.116986	4.78/79	-0.2057059
-5.116986	4.79/80	-0.2104379
-3.685622	40	-0.2910687
-5.116986	40,700	-0.2206769
-5.116986	40-3/4	-0.2016818
-5.116986	40-minute	-0.2208462
-5.116986	40-strong	-0.2206238
-4.639865	40-year-old	-0.2789443
-4.116986	400	-0.2355844
-4.815956	400,000	-0.2205873
-5.116986	405.50	-0.2016818
-5.116986	406	-0.2199029
-5.116986	408.28	-0.2207267
-4.213896	41	-0.2035987
-5.116986	410	-0.2016818
-4.338835	42	-0.3210569
-5.116986	42-1/2	-0.2201223
-5.116986	420,000	-0.2203814
-5.116986	424,700	-0.2206769
-4.162744	43	-0.2830888
-5.116986	430	-0.2208627
-4.815956	432	-0.2197101
-4.639865	44	-0.1980153
-4.639865	44,000	-0.2785493
-5.116986	44-3/4	-0.2057059
-5.116986	446	-0.2174523
-4.213896	45	-0.3057311
-5.116986	453	-0.2199029
-5.116986	455	-0.2016818
-4.815956	457.7	-0.3107471
-4.514926	46	-0.3103683
-5.116986	46-3/8	-0.2189443
-4.815956	462	-0.3107437
-5.116986	465,000	-0.2203814
-4.338835	47	-0.2257645
-5.116986	47-3/8	-0.2131276
-5.116986	47-32	-0.218861
-5.116986	47.5	-0.2207632
-5.116986	479	-0.2016818
-4.338835	47th	-0.4966609
-4.338835	48	-0.4148184
-5.116986	48-3/4	-0.2131276
-5.116986	484.5	-0.2203814
-4.815956	48th	-0.2204313
-3.940895	49	-0.9697506
-5.116986	49-year-old	-0.2205309
-4.815956	4:12	-0.3111852
-5.116986	4k	-0.2179669
-4.639865	4km	-0.5087887
-4.213896	5	-0.3521399
-4.639865	5,000	-0.2207433
-4.338835	5,500	-0.262834
-5.116986	5,505	-0.2203814
-5.116986	5,700	-0.2179669
-5.116986	5,880	-0.220667
-5.116986	5,940	-0.2203814
-5.116986	5-3	-0.2202253
-5.116986	5-4	-0.2016818
-5.116986	5-82	-0.2016818
-5.116986	5.057	-0.2206603
-5.116986	5.1875	-0.2200193
-4.815956	5.3	-0.2198098
-5.116986	5.4146/56	-0.2208661
-5.116986	5.4175/85	-0.2020284
-5.116986	5.42	-0.2203881
-5.116986	5.43	-0.2203881
-5.116986	5.46	-0.2203814
-5.116986	5.48	-0.2203881
-5.116986	5.50	-0.2207665
-5.116986	5.6	-0.2203881
-4.639865	5.7	-0.2748008
-5.116986	5.70	-0.2207665
-5.116986	5.7162	-0.2204877
-4.815956	5.7188	-0.2027
-4.514926	5.7200	-0.4182979
-5.116986	5.7220	-0.218861
-5.116986	5.7250	-0.2206205
-5.116986	5.7256	-0.2204877
-5.116986	5.7260	-0.2204877
-5.116986	5.7288	-0.2204877
-5.116986	5.7313	-0.2204877
-5.116986	5.7325	-0.2204877
-3.611836	50	-0.3283453
-4.639865	50,000	-0.2125802
-5.116986	50-1/2	-0.2057059
-4.815956	50-49	-0.3112184
-3.886537	500	-0.2216605
-4.514926	500,000	-0.2201622
-4.514926	500-bed	-0.5115269
-5.116986	50th	-0.2208263
-3.886537	51	-0.7136734
-5.116986	51-30	-0.2200193
-4.639865	51-state	-0.5116513
-5.116986	51/49	-0.2200193
-5.116986	514	-0.2208329
-5.116986	515	-0.2205408
-5.116986	516	-0.2203881
-4.815956	52	-0.2203117
-5.116986	52-1/8	-0.2016818
-5.116986	52-hour	-0.220813
-5.116986	520	-0.2207665
-5.116986	525,600	-0.2206769
-4.815956	528.1	-0.3107471
-5.116986	528.50	-0.2016818
-4.639865	53	-0.1857992
-5.116986	53-1/8	-0.2057059
-4.815956	53-year-old	-0.2208462
-4.815956	53.3	-0.3107471
-5.116986	539	-0.2207665
-4.514926	54	-0.3966141
-5.116986	54,000	-0.2198497
-5.116986	540.50	-0.2207665
-3.940895	55	-0.8075271
-5.116986	55,000	-0.2208495
-4.815956	55-year-old	-0.2207466
-5.116986	550	-0.2203482
-5.116986	559	-0.2207499
-4.815956	56	-0.2015882
-5.116986	56,000	-0.2208627
-5.116986	56.9	-0.2203881
-5.116986	560	-0.2208395
-5.116986	568	-0.2016818
-5.116986	57	-0.2207864
-5.116986	57-year-old	-0.220813
-4.815956	570	-0.2116595
-5.116986	575kg	-0.2104379
-4.213896	58	-0.3077487
-5.116986	580	-0.2208229
-5.116986	584	-0.2199029
-4.639865	59	-0.2330559
-4.815956	5:00	-0.2208495
-5.116986	5:36:37	-0.2131276
-5.116986	5:36:39	-0.2057059
-5.116986	5th-6th	-0.2208296
-3.861714	6	-0.4723908
-4.815956	6,000	-0.2207466
-5.116986	6,200	-0.2207665
-5.116986	6-0	-0.2016818
-4.639865	6-1	-0.176464
-5.116986	6-146	-0.2020284
-4.514926	6-3	-0.3837871
-4.639865	6-4	-0.1856949
-4.815956	6.25	-0.3103783
-5.116986	6.32	-0.2200193
-5.116986	6.38	-0.2200193
-5.116986	6.44	-0.2200193
-4.639865	6.5	-0.2005743
-5.116986	6.5-million-us	-0.2179669
-5.116986	6.52	-0.2200193
-5.116986	6.61	-0.2200193
-5.116986	6.75	-0.2104379
-5.116986	6.8	-0.2203881
-5.116986	6.84	-0.2207267
-5.116986	6.89	-0.2200193
-3.669828	60	-0.2794414
-4.639865	60,000	-0.2784697
-5.116986	60-62.5	-0.2208661
-4.815956	60-billion-dollar	-0.31086
-4.514926	600	-0.217342
-5.116986	600,000	-0.2208594
-5.116986	606,000	-0.2203814
-4.514926	61	-0.2441409
-5.116986	61-42	-0.218861
-5.116986	61-5/8	-0.2057059
-4.116986	62	-0.4064994
-5.116986	62-square-kilometre	-0.2179669
-4.815956	620	-0.216696
-5.116986	625kg	-0.2057059
-4.815956	63,000	-0.2201223
-5.116986	63-1/8	-0.2057059
-5.116986	64	-0.2203881
-5.116986	64-year	-0.2204147
-4.815956	64.7	-0.3107471
-5.116986	65	-0.2207665
-5.116986	65-57	-0.2194938
-4.815956	65-year	-0.3112151
-5.116986	65-year-old	-0.2207798
-5.116986	650	-0.2208528
-5.116986	650,000	-0.2208627
-5.116986	655	-0.2208661
-5.116986	659	-0.2208196
-4.514926	66	-0.2439986
-5.116986	66-3/8	-0.2131276
-4.213896	67	-0.1801926
-5.116986	67-year-old	-0.2208594
-5.116986	67.5	-0.2208661
-5.116986	67.5-70	-0.2020284
-5.116986	673	-0.2199029
-4.815956	677	-0.2207698
-4.514926	68	-0.1990247
-5.116986	68,000	-0.2208196
-4.815956	680	-0.3107471
-5.116986	680,000	-0.2208627
-4.418016	69	-0.2349414
-5.116986	699	-0.2203881
-5.116986	6:30	-0.2208661
-4.639865	6:50	-0.511648
-4.815956	7	-0.2053176
-4.162744	7,000	-0.3659356
-5.116986	7,400	-0.2203814
-4.815956	7-5	-0.1858208
-5.116986	7-6	-0.2179669
-5.116986	7.0	-0.2200193
-5.116986	7.248	-0.2206603
-5.116986	7.3	-0.2203881
-5.116986	7.4-percent	-0.2208594
-5.116986	7.49	-0.2200193
-4.514926	7.50	-0.4179557
-4.815956	7.51	-0.3103783
-5.116986	7.54	-0.2200193
-4.639865	7.56	-0.5108411
-5.116986	7.57	-0.2200193
-5.116986	7.59	-0.2200193
-5.116986	7.6	-0.2200193
-5.116986	7.8	-0.2206603
-5.116986	7/5	-0.2179669
-4.037805	70	-0.2574472
-5.116986	70,000	-0.2207798
-5.116986	700	-0.2208661
-5.116986	700,000	-0.2203814
-5.116986	701.4	-0.2203881
-4.815956	71	-0.220408
-5.116986	71-1/2	-0.2131276
-5.116986	71.43	-0.2203881
-5.116986	719	-0.2057059
-4.639865	72	-0.2175258
-5.116986	72,469	-0.2206769
-4.815956	72-year-old	-0.220813
-5.116986	72.5	-0.2020284
-5.116986	720	-0.2207798
-5.116986	725	-0.2057059
-4.271888	73	-0.3261878
-5.116986	73,000	-0.2208196
-4.815956	73,268	-0.3110359
-5.116986	73-year-old	-0.2207499
-5.116986	731.80	-0.2057059
-5.116986	74	-0.2204147
-5.116986	74.53	-0.2203881
-5.116986	747	-0.2208627
-4.338835	75	-0.2775054
-4.815956	75,000	-0.2207931
-4.815956	750	-0.3107471
-4.815956	758	-0.3112151
-4.815956	76	-0.2175092
-5.116986	76,000	-0.2208594
-5.116986	76.3	-0.2203881
-5.116986	760	-0.2203881
-5.116986	760,000	-0.2208661
-4.815956	77	-0.2202253
-5.116986	77,000	-0.2208495
-5.116986	774	-0.2203881
-4.815956	78	-0.216994
-4.815956	78th	-0.3111487
-4.815956	790	-0.3107404
-5.116986	791.50	-0.2207665
-5.116986	7:00	-0.2208528
-5.116986	7:15	-0.2208263
-5.116986	7pen	-0.2016818
-4.815956	7th	-0.3111786
-4.271888	8	-0.1701951
-4.815956	8,000	-0.2052007
-5.116986	8,590	-0.2206769
-5.116986	8,950	-0.2057059
-5.116986	8.5-percent	-0.2206836
-5.116986	8.5451	-0.218861
-5.116986	8.5687	-0.2204877
-4.815956	8.5753	-0.2027
-5.116986	8.5864	-0.2204877
-5.116986	8.5883	-0.2204877
-5.116986	8.7	-0.2200193
-5.116986	8.89	-0.2200193
-4.213896	80	-0.1878228
-4.639865	80,000	-0.2789045
-5.116986	80,000-tonne	-0.2208495
-4.418016	800	-0.2540746
-4.418016	800,000	-0.5629183
-5.116986	80th	-0.2208594
-5.116986	81	-0.2203881
-4.815956	82	-0.2204014
-5.116986	82-1/8	-0.2205541
-5.116986	82-3/4	-0.2199029
-5.116986	82.40	-0.2208661
-5.116986	82.5	-0.2208594
-5.116986	82.57	-0.2171814
-5.116986	824	-0.2131276
-4.639865	825	-0.5116547
-5.116986	833	-0.2203814
-5.116986	836	-0.2179669
-4.815956	85	-0.2203715
-4.639865	85-year-old	-0.5115817
-5.116986	858	-0.2171814
-4.639865	87	-0.2760283
-5.116986	87,000	-0.2207798
-5.116986	87-1/8	-0.2131276
-4.815956	87-year-old	-0.2016229
-5.116986	870	-0.2208063
-5.116986	875	-0.220667
-5.116986	878	-0.2057059
-4.514926	88	-0.2630956
-5.116986	88-57	-0.2057059
-4.815956	89	-0.2207897
-5.116986	89,000	-0.2206769
-5.116986	89-year-old	-0.2208263
-5.116986	893	-0.2016818
-5.116986	8:30pm	-0.2179669
-4.418016	9	-0.2018029
-4.213896	9,000	-0.4077887
-4.815956	9,500	-0.3112118
-5.116986	9,750	-0.2206769
-5.116986	9-3-24-1	-0.2016818
-5.116986	9.34	-0.2200193
-4.815956	9.7	-0.3107471
-5.116986	9.76	-0.2200193
-5.116986	9.8	-0.2206603
-5.116986	9.82	-0.2207267
-5.116986	9.9	-0.2200193
-4.075593	90	-0.3784092
-4.815956	90-minute	-0.2204844
-5.116986	900	-0.2203881
-5.116986	900,000	-0.2203183
-4.639865	91	-0.1830356
-4.514926	92	-0.2915378
-5.116986	92,387	-0.2206769
-4.815956	92-69	-0.2207831
-4.815956	92.5	-0.2020215
-5.116986	93	-0.2203183
-5.116986	93.5	-0.2200193
-5.116986	93.69	-0.2020284
-5.116986	939	-0.2207665
-5.116986	94.3	-0.2203881
-5.116986	94.48	-0.2208661
-5.116986	945	-0.2206769
-4.639865	95	-0.276055
-5.116986	95,000	-0.2206769
-5.116986	95.44	-0.2200193
-5.116986	950	-0.2208196
-5.116986	956.5	-0.2208627
-5.116986	956.9	-0.2057059
-5.116986	957	-0.2207964
-5.116986	96	-0.2057059
-4.815956	977	-0.2182974
-5.116986	995	-0.2207798
-5.116986	9:45	-0.2208263
-2.955618	:	-0.4969479
-3.755258	;	-0.2190591
-1.372068	</s>
-99	<s>	-0.517574
-4.418016	?	-0.3973866
-4.162744	`	-0.2579993
-2.049172	``	-0.473132
-1.74518	a	-0.3930447
-5.116986	a.	-0.2208661
-5.116986	a.c.	-0.2208661
-5.116986	a.g.	-0.2208661
-4.003043	a.m.	-1.324116
-5.116986	aahoro	-0.2208296
-5.116986	abacha	-0.2194039
-4.815956	abandon	-0.1951914
-4.514926	abandoned	-0.2626502
-5.116986	abc	-0.2179669
-4.075593	abdallah	-1.262199
-4.418016	abdel	-0.2547718
-5.116986	abdication	-0.2016818
-5.116986	abdomen	-0.2016818
-5.116986	abdujaparov	-0.2109202
-4.418016	abdul	-0.4358529
-4.639865	abed	-0.2198065
-5.116986	abetting	-0.2122453
-5.116986	abide	-0.2183241
-5.116986	abidin	-0.2165553
-4.338835	ability	-0.3454607
-5.116986	abimael	-0.2208661
-4.815956	abitbol	-0.2158713
-3.940895	able	-1.193689
-4.514926	ables	-0.2432238
-4.514926	abnormal	-0.5116796
-4.514926	aboard	-0.2854835
-4.418016	abortion	-0.3438621
-2.967767	about	-0.3824954
-5.116986	about-face	-0.2171814
-3.774563	above	-0.2947846
-5.116986	abramowitz	-0.2016818
-4.271888	abroad	-0.3354849
-5.116986	abrupt	-0.2131276
-5.116986	abruptly	-0.2207599
-4.514926	absence	-0.3933653
-4.514926	absolutely	-0.2203815
-5.116986	abstained	-0.2122453
-4.116986	abu	-0.3882831
-5.116986	abuja	-0.2057059
-4.639865	abuse	-0.2535038
-5.116986	abyan	-0.2016818
-5.116986	abyane	-0.2206305
-4.815956	ac	-0.3112184
-4.815956	academic	-0.2159518
-5.116986	academicians	-0.2189443
-5.116986	academics	-0.2208329
-5.116986	academy	-0.2208661
-4.815956	accelerate	-0.3112118
-5.116986	accelerated	-0.2200126
-3.838233	accept	-0.3441819
-5.116986	acceptable	-0.2207964
-5.116986	acceptance	-0.2109202
-4.338835	accepted	-0.3404002
-4.815956	accepts	-0.1936436
-4.003043	access	-0.8964804
-5.116986	accessible	-0.2183241
-4.037805	accident	-0.2739849
-4.815956	accidentally	-0.3106773
-5.116986	accidents	-0.2016818
-5.116986	accommodating	-0.2207997
-5.116986	accommodation	-0.2131276
-4.514926	accompanied	-0.4157361
-4.815956	accompli	-0.3074701
-5.116986	accomplices	-0.2208627
-5.116986	accomplish	-0.2199595
-3.736775	accord	-0.2382064
-4.514926	accordance	-0.5096145
-3.504202	according	-1.612818
-4.116986	accords	-0.2820103
-4.116986	account	-0.3611116
-5.116986	accountants	-0.2016818
-4.639865	accounting	-0.2755504
-4.639865	accounts	-0.204798
-5.116986	accross	-0.2203682
-5.116986	accumulated	-0.2122453
-4.514926	accurate	-0.2014668
-4.815956	accurately	-0.3112151
-4.639865	accusations	-0.2661951
-5.116986	accuse	-0.2207566
-3.861714	accused	-0.5202506
-5.116986	accuses	-0.2109202
-5.116986	accusing	-0.2208296
-5.116986	acerbic	-0.2204147
-4.418016	achieve	-0.3344732
-4.271888	achieved	-0.1866608
-4.639865	achieving	-0.2181906
-5.116986	acid	-0.2057059
-4.815956	acknowledge	-0.192395
-4.514926	acknowledged	-0.2589834
-5.116986	acord	-0.2187877
-4.815956	acquired	-0.2129621
-5.116986	acquisition	-0.2109202
-4.639865	acres	-0.5087887
-3.719046	across	-0.666388
-4.116986	act	-0.1751494
-4.815956	acted	-0.2190076
-4.514926	acting	-0.2171446
-3.504202	action	-0.2443008
-4.213896	actions	-0.2720459
-4.075593	active	-0.2130755
-5.116986	actively	-0.2208263
-4.639865	activist	-0.2206935
-4.639865	activists	-0.219344
-3.970858	activities	-0.2593386
-4.815956	activity	-0.2105365
-4.639865	actor	-0.209114
-4.639865	actress	-0.2208594
-5.116986	actually	-0.2207864
-5.116986	acumen	-0.2131276
-4.271888	adams	-0.2146056
-5.116986	adaptations	-0.2104379
-4.815956	adapted	-0.2182507
-5.116986	add	-0.2129892
-3.265728	added	-0.9176705
-3.755258	adding	-1.084887
-4.639865	addition	-0.248878
-4.514926	additional	-0.2636169
-5.116986	additionally	-0.2207897
-4.213896	address	-0.2579938
-4.639865	addressing	-0.2203183
-4.815956	adds	-0.3007969
-4.815956	adel	-0.3112217
-5.116986	adelaide	-0.2016818
-3.493737	aden	-0.7416095
-5.116986	adeptly	-0.220813
-4.271888	adequate	-0.3527772
-4.418016	adhere	-0.5716744
-5.116986	adil	-0.2208661
-4.418016	adjani	-0.211282
-5.116986	adjoining	-0.2208263
-5.116986	adjourned	-0.2208594
-5.116986	adjourns	-0.2174523
-4.639865	adjustment	-0.2111034
-5.116986	administered	-0.2122453
-3.493737	administration	-0.3436806
-4.514926	administrative	-0.2635638
-4.815956	administrator	-0.2109066
-5.116986	adminstration	-0.2207665
-4.815956	admiral	-0.2205939
-5.116986	admiring	-0.2208428
-4.514926	admit	-0.2531425
-4.815956	admits	-0.3100724
-4.162744	admitted	-0.4127889
-4.338835	admitting	-0.338212
-5.116986	adolescence	-0.2131276
-4.418016	adopt	-0.1930145
-4.116986	adopted	-0.2903473
-5.116986	adoption	-0.2109202
-5.116986	adrian	-0.2208163
-4.815956	adulthood	-0.1976866
-5.116986	adults	-0.2131276
-5.116986	adumim	-0.2016818
-5.116986	adumin	-0.22073
-4.338835	advance	-0.2699879
-4.213896	advanced	-0.1805892
-4.815956	advancers	-0.2208627
-4.639865	advances	-0.5091459
-5.116986	advancing	-0.2131276
-5.116986	advantae	-0.2109202
-4.514926	advantage	-0.2082475
-4.639865	advantages	-0.510269
-5.116986	adventure	-0.2057059
-4.815956	adventures	-0.3108533
-5.116986	adversarial	-0.2122453
-5.116986	adversely	-0.2208229
-5.116986	advertisements	-0.2181038
-5.116986	advertising	-0.2207566
-4.338835	advice	-0.1923112
-5.116986	advise	-0.2204645
-5.116986	advised	-0.1953286
-4.639865	adviser	-0.2685291
-5.116986	advisers	-0.2189443
-5.116986	advising	-0.2204977
-5.116986	advisor	-0.2208561
-5.116986	advisory	-0.2208362
-5.116986	advocate	-0.2057059
-5.116986	ae	-0.220803
-5.116986	aegis	-0.2109202
-4.639865	aerodynamics	-0.1899475
-5.116986	aerospace	-0.2208229
-5.116986	aesthetic	-0.2016818
-4.418016	afc	-0.2138363
-4.514926	affair	-0.184535
-3.719046	affairs	-0.3207866
-4.514926	affect	-0.3932562
-4.037805	affected	-0.6847125
-4.639865	affecting	-0.1952019
-5.116986	affiliates	-0.2016818
-5.116986	affiliation	-0.2057059
-5.116986	affordability	-0.2109202
-5.116986	afforded	-0.2129892
-4.514926	afghanistan	-0.3915534
-4.815956	afield	-0.2012898
-5.116986	afoul	-0.2187877
-2.503144	afp	-1.507271
-5.116986	afraid	-0.2181038
-3.685622	africa	-0.4643301
-5.116986	africa/usa	-0.2179669
-3.719046	african	-0.315934
-2.653093	after	-0.4141913
-5.116986	after-effects	-0.2016818
-5.116986	afterall	-0.2057059
-4.815956	aftermath	-0.2920408
-3.886537	afternoon	-0.3478275
-5.116986	afternoons	-0.2122453
-5.116986	aftershocks	-0.2194272
-4.514926	afterwards	-0.2915378
-3.719046	again	-0.251571
-2.986652	against	-0.3889056
-5.116986	agassi	-0.2016818
-5.116986	agathe	-0.2208661
-5.116986	agdam	-0.2016818
-4.418016	age	-0.219423
-4.815956	age-old	-0.3112184
-4.514926	aged	-0.220109
-5.116986	agence	-0.2208661
-4.418016	agencies	-0.2810497
-3.368798	agency	-0.4173222
-4.213896	agenda	-0.2017148
-5.116986	agent	-0.2208661
-5.116986	agents	-0.2207798
-5.116986	aggravated	-0.2208627
-5.116986	aggression	-0.2016818
-5.116986	aggressions	-0.2189443
-4.639865	aggressive	-0.2205873
-5.116986	aggressor	-0.2016818
-5.116986	aggressors	-0.2057059
-4.639865	agile	-0.5116779
-5.116986	aging	-0.2208428
-5.116986	agni	-0.2208661
-3.560683	ago	-0.5262479
-5.116986	agony	-0.2016818
-5.116986	agrarian	-0.2204811
-3.774563	agree	-0.3878648
-4.815956	agreeable	-0.3007969
-3.376623	agreed	-0.5487952
-4.815956	agreeing	-0.3007969
-3.241925	agreement	-0.4367003
-5.116986	agreement-in-principle	-0.2194039
-4.162744	agreements	-0.2167575
-4.815956	agrees	-0.3007969
-5.116986	agression	-0.2197367
-4.162744	agricultural	-0.3837609
-4.514926	agriculture	-0.2606671
-3.376623	ahead	-0.8613287
-4.514926	ahmad	-0.2444774
-4.514926	ahmed	-0.2636633
-4.815956	ahmedabad	-0.1986478
-4.815956	ai	-0.3112217
-3.525922	aid	-0.2882202
-4.514926	aide	-0.5012647
-5.116986	aiding	-0.1953286
-4.815956	aids	-0.2015119
-4.815956	ailments	-0.2053038
-4.116986	aim	-0.3807712
-3.774563	aimed	-1.146706
-4.639865	aiming	-0.2650422
-5.116986	aims	-0.2104379
-5.116986	aintain	-0.2207864
-3.435745	air	-0.4493784
-4.815956	air-inter	-0.2960649
-4.639865	airbridge	-0.2684544
-4.116986	aircraft	-0.2778193
-5.116986	aircrew	-0.2207068
-5.116986	aired	-0.218861
-4.271888	aires	-0.3136892
-4.514926	airlift	-0.4179657
-4.418016	airlifted	-0.4182182
-4.003043	airline	-0.2413043
-4.815956	airliner	-0.3111985
-3.669828	airlines	-0.4271972
-5.116986	airplanes	-0.2208627
-3.361111	airport	-0.5753042
-4.271888	airports	-0.3505776
-3.861714	airways	-0.3011574
-5.116986	aiv	-0.2016818
-3.970858	ajello	-0.3155252
-5.116986	akashi	-0.2016818
-4.514926	akbar	-0.4150741
-5.116986	akiyama	-0.2016818
-3.611836	al	-0.6905927
-5.116986	al-alfi	-0.2016818
-5.116986	al-amin	-0.2208661
-4.815956	al-aqsa	-0.2016541
-5.116986	al-arabi	-0.2016818
-4.815956	al-assad	-0.2141834
-4.162744	al-baid	-0.4313481
-5.116986	al-daleh	-0.2016818
-5.116986	al-lozi	-0.2165553
-5.116986	al-mandab	-0.2016818
-5.116986	al-mandeb	-0.2016818
-5.116986	al-shara	-0.2196103
-4.639865	al-thawra	-0.2786423
-4.116986	alain	-1.041286
-5.116986	alami	-0.2057059
-4.418016	alan	-0.2207002
-5.116986	alarming	-0.2057059
-4.418016	alatas	-0.1947372
-4.514926	albania	-0.3963836
-5.116986	albanian	-0.2202386
-5.116986	albanians	-0.2208528
-5.116986	albany	-0.2057059
-5.116986	albeit	-0.2208627
-4.639865	albert	-0.2789642
-5.116986	alboreto	-0.2207831
-5.116986	album	-0.2057059
-5.116986	alcan	-0.2194039
-4.815956	alcatel-sel	-0.219557
-4.815956	alcohol	-0.1948992
-5.116986	alcott	-0.2016818
-4.815956	aldo	-0.3111819
-4.815956	alert	-0.2053623
-5.116986	alerting	-0.2204977
-4.815956	alex	-0.2208528
-4.815956	alexander	-0.3111952
-4.815956	alexandre	-0.3112217
-5.116986	alfred	-0.2208661
-5.116986	alfredsson	-0.2020284
-3.598472	ali	-0.7399142
-4.639865	alia	-0.1798497
-5.116986	alibi	-0.2174523
-4.639865	alice	-0.5116712
-5.116986	alicia	-0.2208661
-5.116986	alight	-0.2199029
-5.116986	alija	-0.2208661
-5.116986	alison	-0.2208661
-4.418016	alive	-0.3326129
-2.871473	all	-0.396346
-5.116986	all-or-nothing	-0.2206537
-5.116986	all-out	-0.2205574
-5.116986	all-party	-0.2206072
-5.116986	all-race	-0.22074
-5.116986	all-surface	-0.2208395
-5.116986	all-time	-0.22074
-5.116986	all-told	-0.2057059
-4.639865	allah	-0.5116812
-5.116986	allegations	-0.2131276
-5.116986	allege	-0.1953286
-3.912866	alleged	-0.3087519
-4.418016	allegedly	-0.2204446
-5.116986	alleges	-0.2200459
-5.116986	allegiances	-0.2204479
-5.116986	alleging	-0.2204113
-4.213896	allen	-0.1824959
-4.037805	allenby	-1.113884
-5.116986	allergies	-0.2208627
-4.338835	alliance	-0.3318758
-5.116986	allianz	-0.2206968
-5.116986	allied	-0.2206802
-5.116986	allied-signal	-0.2206968
-4.639865	allies	-0.5012597
-3.815956	allow	-0.2381089
-3.702013	allowed	-0.6294241
-4.338835	allowing	-0.2109507
-4.338835	allows	-0.191952
-5.116986	alluding	-0.2104379
-4.514926	ally	-0.2300189
-4.815956	almog	-0.2920408
-3.886537	almost	-0.2802514
-5.116986	aloft	-0.2171814
-4.213896	alone	-0.1995485
-3.774563	along	-0.6904406
-5.116986	alongside	-0.1953286
-4.639865	alonso	-0.2207632
-3.463773	already	-0.2659669
-2.780526	also	-0.206131
-5.116986	altar	-0.2057059
-5.116986	alter	-0.2199595
-4.639865	alternative	-0.2635668
-3.639865	although	-0.3258645
-5.116986	alto	-0.2016818
-4.815956	altogether	-0.3101189
-4.213896	aluminium	-0.192788
-5.116986	alvarez	-0.2057059
-4.271888	always	-0.2180872
-5.116986	alydar	-0.2057059
-4.075593	am	-0.2673436
-4.815956	amador	-0.2170877
-5.116986	amaia	-0.2208661
-5.116986	amanar	-0.2207864
-5.116986	amat	-0.2016818
-5.116986	amateur	-0.2207267
-5.116986	amateurs	-0.2203183
-4.003043	ambassador	-0.2301151
-5.116986	ambition	-0.2182574
-4.418016	ambitious	-0.2469081
-4.815956	amd	-0.2203084
-5.116986	amenable	-0.2104379
-4.271888	amendment	-0.3510886
-4.639865	amendments	-0.2703163
-4.213896	america	-0.1904341
-3.560683	american	-0.2223565
-4.075593	americans	-0.2665501
-4.815956	ameritech	-0.2029974
-4.815956	amerongen	-0.2013176
-3.912866	amid	-0.2507893
-5.116986	amidst	-0.2208395
-4.815956	amman	-0.193018
-4.815956	ammar	-0.3112184
-4.639865	ammunition	-0.2577744
-5.116986	amnestied	-0.2183241
-5.116986	amnesty	-0.2016818
-3.611836	among	-0.5745158
-5.116986	amou	-0.2208627
-4.162744	amount	-0.3823141
-5.116986	amounted	-0.2169739
-4.815956	amounts	-0.200244
-4.815956	amphibious	-0.2208395
-5.116986	ample	-0.2208594
-5.116986	amputation	-0.2016818
-4.639865	amr	-0.2208329
-5.116986	amusing	-0.2016818
-5.116986	amy	-0.2208661
-2.5237	an	-0.4250594
-5.116986	anad	-0.2057059
-5.116986	anaemic	-0.2208229
-5.116986	analysed	-0.1953286
-4.815956	analysis	-0.3012792
-4.116986	analyst	-0.3211706
-3.755258	analysts	-0.5698244
-4.418016	anc	-0.2885739
-5.116986	anchor	-0.2207897
-4.338835	ancient	-0.2298291
-1.75281	and	-0.1330879
-5.116986	and-a-half-hour	-0.2208097
-5.116986	and/or	-0.2207897
-4.271888	anders	-0.4146818
-5.116986	andersen	-0.2208661
-4.514926	andre	-0.2208528
-4.639865	andrea	-0.2789476
-4.271888	andrei	-0.4335031
-5.116986	andres	-0.2208627
-4.271888	andretti	-0.3051004
-4.639865	angeles	-0.2121539
-4.815956	anger	-0.2184843
-4.639865	angered	-0.2788016
-5.116986	angling	-0.2174523
-4.338835	anglo-irish	-0.3916499
-5.116986	angola	-0.2016818
-5.116986	angrily	-0.2208627
-5.116986	angry	-0.2204346
-5.116986	anguish	-0.2016818
-5.116986	anil	-0.2208661
-4.815956	animal	-0.2206769
-4.815956	animals	-0.2121066
-5.116986	animist	-0.2205475
-5.116986	anke	-0.2208661
-5.116986	ankle	-0.2208428
-5.116986	anna	-0.2208627
-4.815956	anne-marie	-0.3112217
-5.116986	annenberg	-0.2208263
-4.815956	annexed	-0.1967723
-4.514926	annie	-0.5116563
-4.003043	anniversary	-0.3617456
-4.815956	announce	-0.1953251
-3.454228	announced	-0.3749801
-3.886537	announcement	-0.2815139
-4.815956	announcements	-0.2056922
-4.338835	announces	-0.2196335
-4.418016	announcing	-0.2819461
-4.213896	annual	-0.2410778
-5.116986	annualised	-0.2207897
-4.213896	annually	-0.2620942
-5.116986	anonymity	-0.2205209
-5.116986	anonymous	-0.2207964
-4.815956	anorexia	-0.2131243
-4.815956	anorexic	-0.2177364
-3.290911	another	-0.2216289
-4.639865	answer	-0.1821624
-5.116986	answers	-0.1953286
-4.815956	antara	-0.2206238
-4.338835	antarctic	-0.2466224
-5.116986	antennae	-0.2207732
-5.116986	anthem	-0.2169739
-4.514926	anthony	-0.2636766
-4.815956	anti	-0.3107736
-5.116986	anti-autonomy	-0.2208594
-4.514926	anti-drug	-0.2207599
-5.116986	anti-fascist	-0.2207333
-5.116986	anti-inflation	-0.2207964
-4.514926	anti-personnel	-0.5116597
-5.116986	anti-semitic	-0.2208395
-4.815956	anti-tank	-0.2207665
-4.815956	anticipated	-0.1934422
-5.116986	anticipation	-0.2109202
-5.116986	antiquated	-0.2207864
-5.116986	antique	-0.2207698
-4.815956	antitrust	-0.3034866
-5.116986	antonin	-0.2208661
-4.514926	antonio	-0.2016506
-5.116986	anwar	-0.2208395
-5.116986	anxiety	-0.2181038
-5.116986	anxious	-0.2174523
-3.153198	any	-0.2815137
-4.639865	anybody	-0.2195171
-5.116986	anymore	-0.2016818
-4.338835	anyone	-0.2681926
-4.162744	anything	-0.2159628
-4.639865	anywhere	-0.2769125
-4.815956	aoa	-0.2179435
-4.338835	apart	-0.3858196
-5.116986	apartheid	-0.2122453
-4.514926	apartment	-0.3928655
-5.116986	apathy	-0.2057059
-5.116986	api	-0.2179669
-5.116986	apologize	-0.2104379
-5.116986	apologized	-0.2104379
-5.116986	apology	-0.2174523
-5.116986	apparatchik	-0.2016818
-5.116986	apparel	-0.2016818
-4.639865	apparent	-0.2779711
-4.075593	apparently	-0.2498275
-5.116986	appc	-0.2179669
-4.271888	appeal	-0.1866435
-4.639865	appealed	-0.5012597
-4.116986	appeals	-0.3340203
-4.514926	appear	-0.2545779
-4.418016	appearance	-0.3619877
-3.940895	appeared	-0.6471589
-5.116986	appearing	-0.2208661
-4.418016	appears	-0.4252506
-5.116986	appetite	-0.2109202
-5.116986	applause	-0.2057059
-5.116986	appliances	-0.21976
-5.116986	applicant	-0.218931
-5.116986	application	-0.2208661
-4.418016	applications	-0.4099192
-4.815956	applied	-0.2170944
-5.116986	apply	-0.2057059
-4.815956	appointed	-0.2112222
-4.514926	appointee	-0.2592919
-4.815956	appointees	-0.3110558
-5.116986	appointment	-0.2104379
-4.815956	appointments	-0.2001744
-5.116986	appoints	-0.2198664
-4.815956	apportioned	-0.2099755
-5.116986	apportions	-0.220813
-5.116986	appreciable	-0.2208196
-4.639865	appreciate	-0.5101025
-4.639865	appreciated	-0.5116679
-5.116986	apprised	-0.2109202
-3.912866	approach	-0.2552731
-4.815956	approached	-0.2014841
-5.116986	appropriate	-0.2208196
-4.418016	approval	-0.2259134
-4.514926	approve	-0.5038159
-3.970858	approved	-0.2706797
-5.116986	approves	-0.220232
-4.418016	approving	-0.4178757
-4.815956	approximately	-0.220667
-3.271888	april	-0.5537846
-5.116986	april-march	-0.2179669
-5.116986	apron	-0.2208627
-5.116986	aqsa	-0.2016818
-3.912866	arab	-0.4201668
-5.116986	arab-israeli	-0.2204811
-4.418016	arabia	-0.1935235
-5.116986	arabian	-0.2208627
-4.815956	arabic	-0.2188444
-5.116986	arabs	-0.2131276
-3.774563	arafat	-0.3340654
-4.338835	aral	-0.3093965
-4.639865	arbil	-0.1966846
-5.116986	arbitrage	-0.2203715
-5.116986	arbitrary	-0.2207864
-5.116986	arch	-0.2208627
-4.815956	arch-rival	-0.201269
-5.116986	archeologists	-0.2057059
-5.116986	archie	-0.2208661
-2.64423	are	-0.2851133
-3.719046	area	-0.3751357
-3.625624	areas	-0.2796909
-4.815956	arena	-0.1935871
-4.639865	argentina	-0.2179101
-4.514926	argentine	-0.2621578
-4.639865	argentinian	-0.2789476
-5.116986	argentinians	-0.220813
-5.116986	arguably	-0.2208594
-4.418016	argued	-0.5793403
-5.116986	arguing	-0.1953286
-4.639865	argument	-0.5116812
-4.815956	arguments	-0.2201157
-4.815956	arianespace	-0.2111543
-4.815956	arie	-0.3112217
-4.514926	ariel	-0.1907768
-5.116986	ariffin	-0.2208661
-5.116986	arisen	-0.2104379
-4.639865	aristide	-0.2439256
-5.116986	aristocracy	-0.2057059
-5.116986	arizona	-0.2208428
-4.116986	arkansas	-0.295123
-4.815956	arm	-0.2015084
-5.116986	arm-twisting	-0.2202253
-5.116986	armaments	-0.2057059
-3.912866	armed	-0.3662851
-5.116986	armenia	-0.2177465
-4.514926	armenian	-0.2204578
-4.162744	armies	-0.377466
-5.116986	armored	-0.2208661
-5.116986	armoured	-0.2208528
-3.473533	arms	-0.6614954
-4.639865	armstrong	-0.2552767
-3.192707	army	-0.3537018
-4.418016	arnold	-0.2531549
-5.116986	arose	-0.2205375
-3.259654	around	-0.3733099
-5.116986	around-the	-0.2204147
-4.815956	arrangement	-0.3012792
-4.338835	arrangements	-0.2569691
-5.116986	arrears	-0.2122453
-4.037805	arrest	-0.369967
-3.794767	arrested	-0.2738703
-5.116986	arresting	-0.2206006
-4.418016	arrests	-0.2617106
-4.213896	arrival	-0.2593449
-4.815956	arrivals	-0.218921
-4.418016	arrive	-0.4267033
-3.463773	arrived	-0.6329323
-4.815956	arrives	-0.2116832
-5.116986	arrogant	-0.2208661
-5.116986	arrows	-0.2171814
-5.116986	arruti	-0.2179669
-4.639865	arsenal	-0.2075775
-4.815956	arsenals	-0.3109894
-5.116986	art	-0.2208627
-5.116986	arthoscopic	-0.2208561
-5.116986	arthritis	-0.2016818
-4.514926	arthur	-0.2636898
-4.639865	article	-0.197823
-5.116986	articles	-0.2208661
-5.116986	artifacts	-0.2207897
-5.116986	artificial	-0.2208627
-4.815956	artillery	-0.2208528
-4.815956	artist	-0.3112151
-5.116986	artists	-0.2199595
-4.639865	arturo	-0.5116812
-2.375047	as	-0.5012187
-4.162744	ascension	-0.3582084
-5.116986	asheville	-0.2016818
-5.116986	ashrawi	-0.2016818
-3.940895	asia	-0.2965337
-4.213896	asian	-0.2862649
-4.639865	ask	-0.2171713
-3.525922	asked	-0.3526763
-4.514926	asking	-0.2574851
-5.116986	asks	-0.2208395
-5.116986	asociation	-0.2203715
-4.815956	aspect	-0.1847694
-4.271888	aspects	-0.3239264
-5.116986	aspirants	-0.2016818
-5.116986	assailants	-0.2208661
-5.116986	assan	-0.2208528
-5.116986	assassinated	-0.2129892
-4.514926	assassination	-0.501747
-4.815956	assault	-0.217158
-4.815956	assemble	-0.1871135
-5.116986	assembled	-0.2129892
-4.271888	assembly	-0.3776226
-5.116986	asserted	-0.2181038
-4.815956	assertion	-0.2155423
-5.116986	assess	-0.22074
-4.815956	assessment	-0.2193141
-4.815956	assets	-0.2056991
-5.116986	assia	-0.2131276
-4.639865	assist	-0.2789244
-4.037805	assistance	-0.2308377
-4.213896	assistant	-0.3310952
-5.116986	assisting	-0.2122453
-5.116986	assists	-0.2131276
-5.116986	associate	-0.2122453
-5.116986	associated	-0.2208661
-3.611836	association	-0.2743014
-4.815956	associations	-0.1926641
-4.514926	assurances	-0.4141328
-5.116986	assure	-0.1953286
-4.815956	assured	-0.218761
-5.116986	assures	-0.1953286
-4.815956	aston	-0.3112217
-4.815956	astronaut	-0.1907732
-4.815956	astrophysicist	-0.3112217
-4.815956	asylum	-0.2053657
-4.815956	asyut	-0.3110923
-2.335949	at	-0.4622394
-4.815956	ataq	-0.2920408
-4.815956	ath-thawra	-0.2012378
-4.213896	athens	-0.3127193
-5.116986	athletic	-0.2208661
-4.815956	ati	-0.3112217
-3.940895	atlanta	-0.2055453
-4.037805	atlantic	-0.4071354
-4.418016	atmosphere	-0.2109739
-4.815956	atomic	-0.3112118
-5.116986	atop	-0.1953286
-3.774563	atpc	-0.2633672
-5.116986	atrabhanah	-0.2057059
-5.116986	atrocities	-0.2016818
-5.116986	att	-0.2203881
-4.639865	attaches	-0.2684748
-3.560683	attack	-0.3333975
-4.213896	attacked	-0.1702017
-5.116986	attackers	-0.2194272
-5.116986	attacking	-0.1953286
-3.970858	attacks	-0.3123862
-5.116986	attainable	-0.2016818
-4.075593	attempt	-0.7598252
-4.213896	attempted	-0.3230853
-4.815956	attempting	-0.3007969
-4.815956	attempts	-0.2101966
-4.213896	attend	-0.2523504
-4.815956	attendants	-0.2204711
-4.639865	attended	-0.2507335
-4.639865	attending	-0.4861504
-4.213896	attention	-0.176835
-4.815956	attia	-0.3112217
-5.116986	attitudes	-0.2131276
-4.162744	attorney	-0.3158522
-5.116986	attorney-client	-0.2208561
-5.116986	attorney-general	-0.2131276
-4.418016	attract	-0.2538752
-4.639865	attracted	-0.2019314
-5.116986	attractive	-0.2207897
-4.639865	attributed	-0.242362
-4.418016	auction	-0.2413597
-5.116986	auctions	-0.2171814
-4.639865	audience	-0.2516919
-5.116986	audio-visual	-0.2207632
-5.116986	audiovisual	-0.2131276
-5.116986	auditing	-0.22073
-5.116986	auditor-general	-0.2016818
-4.037805	august	-0.2401367
-5.116986	augusto	-0.2208594
-5.116986	auschwitz	-0.2208594
-4.514926	auspices	-0.299824
-3.548784	australia	-0.3691207
-4.037805	australian	-0.2484529
-5.116986	australians	-0.21976
-4.514926	austria	-0.4079146
-3.940895	austrian	-0.2966095
-4.815956	auteuil	-0.2920408
-5.116986	authenticity	-0.2109202
-5.116986	authorisation	-0.2104379
-5.116986	authorised	-0.2104379
-5.116986	authorising	-0.1953286
-5.116986	authorites	-0.2057059
-3.409416	authorities	-0.4127732
-3.774563	authority	-0.3161687
-5.116986	auto	-0.2208395
-5.116986	autobahn	-0.2171111
-4.815956	autographed	-0.3111686
-4.815956	automatic	-0.2206537
-5.116986	automatically	-0.2208661
-4.639865	automobile	-0.2788581
-4.815956	automobiles	-0.2043469
-5.116986	automotive	-0.220501
-4.116986	autonomous	-0.3142695
-3.654588	autonomy	-0.5299129
-4.815956	autopsy	-0.216039
-4.639865	auxerre	-0.2142743
-5.116986	availability	-0.2109202
-4.271888	available	-0.1749991
-3.815956	average	-0.2640435
-4.815956	averaged	-0.2208627
-5.116986	avghi	-0.2174523
-3.912866	aviation	-0.266381
-5.116986	avigdor	-0.2208661
-5.116986	avila	-0.2104379
-5.116986	aviv	-0.2131276
-4.116986	avoid	-0.2202858
-4.815956	avoiding	-0.2208097
-4.815956	awa	-0.3111952
-4.514926	awaited	-0.2214896
-4.213896	awaiting	-0.3747305
-5.116986	awaits	-0.2204977
-4.815956	awake	-0.2025062
-4.815956	award	-0.2107436
-5.116986	awarded	-0.2129892
-5.116986	awards	-0.2016818
-4.514926	aware	-0.4069031
-4.815956	awareness	-0.2109134
-3.838233	away	-0.3426677
-5.116986	awkwardness	-0.2183241
-5.116986	axes	-0.2131276
-5.116986	ayako	-0.2208661
-4.075593	ayala	-1.079145
-5.116986	ayala-lasso	-0.2207665
-5.116986	ayale	-0.2057059
-5.116986	ayodhya	-0.2183241
-4.338835	ayrton	-0.4818137
-5.116986	azerbaijan	-0.2109202
-5.116986	azerbaijani	-0.2208263
-5.116986	azerbajian	-0.2057059
-4.639865	azeri	-0.2124348
-4.418016	aziz	-0.3670462
-4.213896	b	-0.3342929
-5.116986	b.a.	-0.2207997
-5.116986	b.r.	-0.2208661
-3.940895	ba	-0.4009978
-4.639865	bab	-0.2208594
-5.116986	babatope	-0.2016818
-4.418016	babbitt	-0.2205372
-4.815956	baben	-0.2016714
-5.116986	babes	-0.2171111
-5.116986	babies	-0.2131276
-5.116986	babri	-0.2208661
-4.815956	baby	-0.220657
-3.192707	back	-0.4932051
-4.075593	backed	-0.598709
-5.116986	backer	-0.2109202
-4.815956	backers	-0.2107504
-5.116986	backfire	-0.2171814
-4.418016	background	-0.1856841
-5.116986	backhand	-0.2205541
-4.213896	backing	-0.2310502
-5.116986	backlog	-0.2206968
-4.639865	backs	-0.197494
-4.639865	backup	-0.5115982
-5.116986	backwards	-0.2016818
-4.815956	bacolod	-0.2920408
-4.162744	bad	-0.2784553
-5.116986	badakhshan	-0.2057059
-5.116986	badari	-0.2016818
-4.815956	bader	-0.3112018
-4.639865	badly	-0.2207632
-4.639865	badr	-0.5079329
-5.116986	bag	-0.2109202
-5.116986	bagged	-0.2206769
-4.639865	baghdad	-0.2163207
-4.639865	bagnall	-0.2755003
-5.116986	bahamian	-0.2208395
-5.116986	bahini	-0.2207864
-5.116986	bahr	-0.2016818
-4.037805	baid	-0.2965078
-4.418016	bail	-0.2406302
-4.815956	bakassi	-0.2016749
-4.639865	bakorstanas	-0.1982041
-5.116986	baku	-0.2177465
-3.886537	balaguer	-0.3689193
-4.514926	balah	-0.4925086
-4.338835	balance	-0.1858315
-5.116986	balanced	-0.2208395
-5.116986	balearic	-0.2208462
-4.815956	balkan	-0.311099
-4.418016	ball	-0.1828401
-4.815956	ballesteros	-0.2167831
-5.116986	ballistic	-0.2207864
-5.116986	balloon	-0.2057059
-4.815956	ballot	-0.2960649
-5.116986	balloting	-0.2057059
-5.116986	ballots	-0.2020284
-5.116986	balls	-0.2057059
-5.116986	baltic	-0.2203914
-5.116986	baltimore	-0.2016818
-4.815956	baltin	-0.2162034
-3.861714	ban	-0.2782305
-4.815956	banco	-0.2208063
-5.116986	band	-0.2131276
-5.116986	band-aids	-0.2016818
-5.116986	banditry	-0.2204213
-5.116986	bands	-0.2208561
-4.213896	bangkok	-0.319103
-4.514926	bangladesh	-0.2004388
-5.116986	bangladeshi	-0.2208594
-3.037805	bank	-0.5057443
-5.116986	bankamerica	-0.218861
-5.116986	bankers	-0.2131276
-4.271888	banking	-0.236696
-5.116986	banknotes	-0.2208428
-5.116986	bankroll	-0.2208561
-5.116986	bankrolling	-0.1953286
-5.116986	bankruptcy	-0.2206039
-3.736775	banks	-0.1944602
-4.338835	banned	-0.1614809
-5.116986	banner	-0.2208661
-5.116986	banners	-0.2131276
-5.116986	banning	-0.2197134
-5.116986	banquet	-0.2016818
-5.116986	bans	-0.1953286
-4.514926	bao	-0.2920339
-5.116986	bar	-0.2165553
-4.815956	barahmi	-0.2920408
-5.116986	barb	-0.2208661
-4.037805	barcelona	-0.1627578
-5.116986	barclays	-0.2208097
-5.116986	bare	-0.2208661
-4.514926	barely	-0.5116829
-4.815956	bargain	-0.202167
-4.815956	barham	-0.2920408
-5.116986	barley	-0.2207698
-5.116986	barracks	-0.2208428
-5.116986	barred	-0.2208296
-5.116986	barrel	-0.2057059
-4.418016	barrels	-0.2285714
-4.815956	barrier	-0.30922
-4.815956	barring	-0.2205541
-4.815956	barrister	-0.3034866
-4.815956	barroso	-0.2207566
-4.338835	bars	-0.2509707
-4.639865	bartholomew	-0.2785991
-5.116986	barton	-0.2208661
-5.116986	barzani	-0.2179669
-4.116986	base	-0.218491
-3.685622	based	-1.009951
-5.116986	baseman	-0.2207831
-5.116986	bases	-0.218861
-4.162744	basic	-0.3506193
-4.514926	basically	-0.2529623
-5.116986	basing	-0.2208428
-5.116986	basingstoke	-0.2122453
-3.736775	basis	-0.4767952
-5.116986	basket	-0.2016818
-4.418016	basketball	-0.4357799
-5.116986	basking	-0.2122453
-4.514926	bastion	-0.4965327
-4.815956	bat	-0.2203848
-5.116986	bath	-0.2057059
-3.755258	battle	-0.2339928
-4.815956	battled	-0.2173085
-4.815956	battles	-0.2016714
-5.116986	battling	-0.2174523
-5.116986	bavarian	-0.2131276
-4.815956	bay	-0.2920408
-5.116986	bayraqdar	-0.2016818
-4.003043	bb94	-1.127287
-4.639865	bbc	-0.182822
-2.419757	be	-0.2983464
-5.116986	beach	-0.2208528
-5.116986	beans	-0.2057059
-4.162744	beat	-0.2050597
-4.338835	beaten	-0.2077725
-4.418016	beating	-0.2053142
-5.116986	beatings	-0.2016818
-4.815956	beautiful	-0.1926641
-5.116986	bebeto	-0.2016818
-4.162744	became	-0.3426737
-3.208501	because	-0.5751854
-4.116986	becker	-0.2019938
-4.639865	beckett	-0.1932761
-3.719046	become	-0.3351897
-4.639865	becomes	-0.2208295
-4.075593	becoming	-0.4007896
-5.116986	bed	-0.2208495
-5.116986	bedevilled	-0.2208163
-4.815956	bedside	-0.2960649
-5.116986	beecham	-0.2206968
-4.418016	beef	-0.1988782
-4.815956	beefing	-0.2200691
-2.705366	been	-0.2903102
-3.041439	before	-0.3818201
-3.861714	began	-0.1652517
-4.162744	begin	-0.2085437
-4.037805	beginning	-0.4740709
-4.639865	begins	-0.21974
-5.116986	begun	-0.2207831
-4.514926	behalf	-0.3892441
-5.116986	behave	-0.2207499
-5.116986	behaving	-0.2207499
-4.815956	behaviour	-0.1912778
-4.418016	beheaded	-0.3404452
-5.116986	beheadings	-0.219883
-3.736775	behind	-0.4297275
-3.444888	beijing	-0.4013824
-4.338835	beilin	-0.2248572
-3.284477	being	-0.2203292
-5.116986	belarus	-0.2208661
-5.116986	belatedly	-0.2208395
-4.116986	belfast	-0.3686527
-4.418016	belgian	-0.3435474
-4.213896	belgium	-0.3701459
-4.418016	belgrade	-0.3279196
-4.639865	belgrade-backed	-0.5116314
-5.116986	belief	-0.2181038
-4.639865	beliefs	-0.5089256
-3.886537	believe	-0.3201497
-4.162744	believed	-0.3431143
-4.514926	believes	-0.2199761
-5.116986	belize	-0.2057059
-4.815956	bell	-0.3111885
-5.116986	belligerents	-0.2171814
-5.116986	bellwether	-0.2208528
-4.639865	belmont	-0.2056956
-4.271888	belong	-0.4560086
-4.815956	belonged	-0.3007969
-5.116986	belonging	-0.2104379
-4.815956	belongings	-0.1995825
-5.116986	belongs	-0.2104379
-3.886537	below	-0.4523422
-5.116986	bemvenuti	-0.2179669
-5.116986	ben	-0.2207267
-5.116986	benefit	-0.1953286
-4.815956	benefits	-0.2056166
-4.639865	benetton	-0.2208395
-4.815956	benetton-ford	-0.2176161
-4.815956	benfica	-0.2016194
-5.116986	bengali	-0.2057059
-5.116986	bengali-speakers	-0.2189443
-5.116986	benito	-0.2208661
-5.116986	benjamin	-0.220813
-5.116986	bennie	-0.2208627
-5.116986	benson	-0.2131276
-4.815956	berger	-0.1935871
-4.639865	berlin	-0.2439256
-4.338835	berlusconi	-0.216423
-5.116986	bern	-0.2016818
-4.338835	bernard	-0.4340912
-5.116986	berths	-0.2122453
-5.116986	bertrand	-0.2208097
-4.213896	beshir	-0.3418727
-5.116986	besides	-0.2016818
-3.585507	best	-0.2441292
-4.815956	best-of-seven	-0.3111156
-5.116986	bet	-0.220667
-3.625624	better	-0.2980145
-5.116986	better-than-expected	-0.2208296
-5.116986	betting	-0.2207798
-5.116986	bettino	-0.2208561
-2.940895	between	-0.4418833
-4.271888	beyond	-0.4303679
-4.815956	bhd	-0.1986478
-5.116986	bi-monthly	-0.2205475
-5.116986	bias	-0.2016818
-3.669828	bid	-1.348908
-4.815956	bidders	-0.2056441
-4.418016	bidding	-0.4357269
-4.815956	biden	-0.3110724
-5.116986	bids	-0.2183241
-5.116986	biennial	-0.2208362
-3.940895	big	-0.2929941
-5.116986	big-power	-0.2204877
-5.116986	big-server	-0.2208428
-4.639865	bigger	-0.2206669
-3.970858	biggest	-0.2592805
-4.815956	bihac	-0.2920408
-3.912866	bilateral	-0.3252736
-5.116986	bilbao-tenerife	-0.2208395
-5.116986	bilking	-0.219567
-3.368798	bill	-0.7644581
-4.815956	billed	-0.3093933
-5.116986	billing	-0.2208594
-3.317646	billion	-0.6804251
-5.116986	billion-peso	-0.2208428
-5.116986	bills	-0.218861
-5.116986	billy	-0.2208661
-4.639865	bilney	-0.2552767
-5.116986	bin	-0.2208196
-4.514926	binariang	-0.2398619
-5.116986	binding	-0.2208229
-4.639865	binoche	-0.2176829
-5.116986	biographies	-0.2109202
-4.514926	biological	-0.263597
-5.116986	biram	-0.2208594
-4.162744	biran	-0.2930194
-5.116986	bird	-0.2171111
-4.815956	birdie	-0.218831
-4.815956	birdied	-0.2856876
-4.213896	birdies	-0.2959368
-5.116986	biriokov	-0.2016818
-5.116986	birmingham	-0.2016818
-5.116986	birte	-0.2208627
-4.514926	birth	-0.222935
-5.116986	births	-0.2016818
-5.116986	bishopric	-0.2177465
-4.514926	bit	-0.2536453
-4.418016	bitter	-0.2539151
-4.815956	bitterly	-0.2016679
-4.815956	bjoerck	-0.3101289
-3.970858	black	-0.2119463
-5.116986	black-hooded	-0.2207997
-4.815956	blacked	-0.3106208
-5.116986	blacking	-0.2202619
-4.271888	blackmun	-0.2924588
-5.116986	blackouts	-0.2208495
-5.116986	blackpool	-0.2122453
-4.514926	blacks	-0.418454
-4.815956	blair	-0.1858208
-4.815956	blakey	-0.2179101
-4.639865	blame	-0.2718399
-4.338835	blamed	-0.2143551
-5.116986	blames	-0.1953286
-5.116986	blanc	-0.2131276
-4.639865	blankenstein	-0.2130263
-5.116986	blantyre	-0.2016818
-4.271888	blast	-0.3149334
-4.338835	blasts	-0.198302
-4.116986	blatter	-0.2886806
-5.116986	blaylock	-0.2208561
-4.418016	blaze	-0.1538336
-5.116986	bled	-0.2207333
-4.514926	blind	-0.2438979
-5.116986	blinded	-0.2183241
-4.815956	blindness	-0.3026043
-5.116986	blip	-0.2016818
-4.338835	block	-0.2233045
-5.116986	blocked	-0.2201223
-4.815956	blocks	-0.1967723
-4.639865	blood	-0.2111713
-5.116986	bloodbath	-0.2016818
-5.116986	bloodied	-0.2208296
-4.815956	bloodletting	-0.2166793
-4.639865	bloodshed	-0.2700116
-3.970858	bloody	-0.3529997
-4.418016	blow	-0.3900571
-4.639865	blue	-0.2789642
-4.338835	blue-chip	-0.4817275
-5.116986	blues	-0.2206537
-4.815956	blunkett	-0.3069143
-5.116986	bmw	-0.2206968
-3.774563	board	-0.3174024
-4.639865	boarded	-0.2632092
-4.815956	boarding	-0.2129452
-4.815956	boards	-0.1912778
-5.116986	boasts	-0.2109202
-4.639865	boat	-0.1984173
-5.116986	boats	-0.2122453
-4.514926	bob	-0.4188125
-4.639865	bobby	-0.2208395
-5.116986	bobigny	-0.2016818
-5.116986	bock	-0.2016818
-5.116986	boded	-0.2208627
-4.116986	bodies	-0.330118
-3.970858	body	-0.1643053
-4.338835	bodyguards	-0.2013835
-5.116986	boeing	-0.2208661
-4.338835	boesel	-0.3150469
-4.271888	bogey	-0.195071
-5.116986	bogeyed	-0.1953286
-5.116986	bogeys	-0.2206802
-4.815956	bogged	-0.3109131
-4.639865	bogota	-0.4925036
-5.116986	bogus	-0.2208661
-5.116986	boil	-0.2202253
-5.116986	boiling	-0.2207267
-5.116986	bolder	-0.2057059
-5.116986	boldest	-0.2207798
-5.116986	boldly	-0.2171814
-5.116986	bolivar	-0.2177465
-4.815956	bolivia	-0.2016714
-5.116986	bolivian	-0.2208661
-4.815956	bolletieri	-0.2016784
-4.639865	bolster	-0.2452183
-5.116986	bolstering	-0.2207997
-5.116986	bom	-0.2208661
-4.037805	bomb	-0.2414431
-5.116986	bombardments	-0.2206305
-4.037805	bombay	-0.2899301
-5.116986	bombed	-0.2057059
-4.213896	bombing	-0.3810483
-4.815956	bombings	-0.2203648
-4.639865	bombs	-0.2182674
-5.116986	bonanza	-0.2174523
-4.003043	bond	-0.3520085
-4.418016	bonds	-0.2226356
-4.815956	bone	-0.2204346
-5.116986	bones	-0.219883
-3.940895	bonn	-0.2977005
-5.116986	bonsia	-0.2169739
-4.116986	booh	-0.3891053
-4.418016	booh-booh	-0.2677698
-4.271888	book	-0.2178124
-5.116986	bookies	-0.2206537
-5.116986	bookings	-0.2016818
-4.639865	books	-0.177935
-4.639865	boom	-0.2089743
-4.037805	boost	-0.2061372
-4.418016	boosted	-0.2887509
-4.815956	boosting	-0.2208263
-3.639865	border	-0.3527541
-4.639865	bordering	-0.2205972
-4.003043	borders	-0.3112903
-3.970858	boris	-1.180516
-4.514926	born	-0.244921
-4.639865	borne	-0.2778448
-4.815956	borrow	-0.2208196
-4.815956	borrowed	-0.22074
-4.815956	borrowing	-0.2055719
-5.116986	borrwers	-0.2122453
-4.815956	boscan	-0.2055479
-4.514926	bosch	-0.1772313
-3.265728	bosnia	-0.4246048
-3.755258	bosnia-hercegovina	-0.2880868
-3.384592	bosnian	-0.5031916
-4.418016	bosnian-croat	-0.2468811
-4.815956	bosnians	-0.2128135
-4.815956	boss	-0.2169906
-4.213896	bosson	-0.333001
-4.075593	boston	-0.316119
-3.208501	both	-0.2979416
-5.116986	bother	-0.2207599
-5.116986	bottleneck	-0.2208528
-5.116986	bottles	-0.2109202
-4.815956	bottom	-0.2016125
-4.418016	bought	-0.1828655
-5.116986	boulevard	-0.2208661
-4.639865	bounce	-0.5114124
-4.815956	bounced	-0.2203515
-4.162744	bound	-0.4681426
-4.639865	boundaries	-0.2071771
-5.116986	bounded	-0.2201223
-4.271888	bourse	-0.2212408
-5.116986	bout	-0.2057059
-3.838233	boutros	-1.080006
-3.719046	boutros-ghali	-0.2626612
-5.116986	bovine	-0.2208661
-5.116986	bowed	-0.2104379
-5.116986	bowels	-0.2109202
-4.815956	bowled	-0.3106208
-5.116986	bowling	-0.2020284
-5.116986	bowman	-0.2208594
-5.116986	box	-0.2016818
-4.815956	boxers	-0.2125667
-5.116986	boxes	-0.2016818
-4.418016	boxing	-0.2130432
-4.271888	boy	-0.2155116
-5.116986	boys	-0.2205375
-5.116986	brace	-0.2206072
-5.116986	bradford	-0.2205641
-4.815956	bradley	-0.1971719
-5.116986	brain	-0.2208661
-5.116986	brainchild	-0.2109202
-5.116986	brajesh	-0.2208661
-4.815956	brake	-0.3110724
-4.418016	branch	-0.2278555
-5.116986	branches	-0.2057059
-5.116986	brand	-0.220232
-5.116986	branded	-0.2190343
-5.116986	branding	-0.2204977
-4.815956	brands	-0.195399
-5.116986	brass	-0.2208528
-5.116986	bravado	-0.2057059
-4.003043	brazil	-0.5948669
-4.271888	brazilian	-0.2071293
-4.514926	brcko	-0.2270657
-5.116986	breaches	-0.2207964
-5.116986	bread	-0.2190343
-5.116986	breadth	-0.2109202
-3.912866	break	-0.4064032
-5.116986	break-in	-0.2057059
-5.116986	breakaway	-0.2057059
-5.116986	breakdown	-0.2109202
-5.116986	breakdowns	-0.2016818
-4.213896	breaking	-0.2711028
-4.639865	breakthrough	-0.1914091
-5.116986	breakthroughs	-0.220803
-5.116986	breeze	-0.2204445
-4.815956	brent	-0.3112184
-3.611836	breyer	-0.5679749
-5.116986	brian	-0.2208661
-4.514926	briatore	-0.2410973
-4.514926	bribes	-0.2098973
-3.861714	bridge	-0.2449229
-5.116986	bridle	-0.2131276
-4.815956	brief	-0.2202353
-5.116986	briefed	-0.2171814
-4.639865	briefly	-0.2142777
-4.418016	brigade	-0.2385689
-5.116986	brightest	-0.2207997
-5.116986	brilliance	-0.2187877
-3.794767	bring	-0.2741886
-4.116986	bringing	-0.2712661
-4.815956	brings	-0.2207897
-4.815956	brink	-0.3012792
-5.116986	brisbane	-0.2131276
-5.116986	brisbane-based	-0.2208329
-3.42679	britain	-0.5673071
-5.116986	britian	-0.2104379
-3.177467	british	-0.4957154
-5.116986	british-american	-0.2208495
-5.116986	british-owned	-0.2208627
-4.418016	briton	-0.2160592
-4.815956	britons	-0.2015917
-4.418016	broad	-0.2203948
-4.213896	broadcast	-0.2857029
-4.815956	broadcasting	-0.2206139
-5.116986	broadcasts	-0.2109202
-5.116986	broadening	-0.1953286
-4.815956	broader	-0.3109231
-5.116986	broader-based	-0.2207367
-5.116986	broek	-0.2057059
-3.861714	broke	-0.2699605
-4.815956	broken	-0.2119237
-4.514926	broker	-0.2494491
-5.116986	brokered	-0.2129892
-4.514926	brokers	-0.2591679
-5.116986	bronze	-0.2208627
-5.116986	brother	-0.2194272
-4.418016	brothers	-0.235566
-3.685622	brought	-0.3445485
-4.037805	brown	-0.3863221
-5.116986	browne	-0.2165553
-4.338835	bruce	-0.3526281
-5.116986	bruised	-0.2207234
-5.116986	brunei	-0.2016818
-4.514926	bruno	-0.1735477
-4.639865	brussels	-0.2596826
-4.418016	brutal	-0.2910787
-4.815956	brutality	-0.3012792
-5.116986	brutalizing	-0.2016818
-5.116986	bse	-0.2208661
-4.815956	bubis	-0.1995825
-5.116986	buddy	-0.2208495
-4.815956	budget	-0.3111985
-4.271888	buenos	-0.9717948
-4.639865	bugesera	-0.1925189
-4.162744	build	-0.2484512
-3.625624	building	-0.2990633
-3.702013	buildings	-0.6634011
-4.815956	buildup	-0.2960649
-4.639865	built	-0.2695101
-5.116986	bujumbura	-0.2016818
-4.514926	bulgarians	-0.5039544
-5.116986	bulimia	-0.2205906
-5.116986	bulk	-0.2109202
-4.418016	bull	-0.2080494
-4.116986	bullet	-0.3475417
-4.639865	bulletin	-0.2709351
-4.815956	bullets	-0.1926641
-5.116986	bumped	-0.218861
-4.418016	bundesbank	-0.2163207
-4.815956	bundestag	-0.2920408
-5.116986	bundle	-0.2171111
-5.116986	bunkowsky	-0.2020284
-5.116986	buoy	-0.2207698
-5.116986	buoyant	-0.2208561
-5.116986	burdened	-0.2187877
-5.116986	bureacracy	-0.2122453
-4.213896	bureau	-0.3328811
-4.815956	bureaucratic	-0.2208362
-4.418016	bureij	-0.5629183
-5.116986	burfurd	-0.2165553
-5.116986	burials	-0.2174523
-5.116986	buried	-0.2122453
-5.116986	burley	-0.2016818
-5.116986	burma	-0.2181038
-4.815956	burning	-0.2092947
-4.514926	burst	-0.254561
-5.116986	bursts	-0.2204445
-5.116986	buruh	-0.2057059
-4.003043	burundi	-0.3001639
-4.639865	burundian	-0.2206171
-4.815956	burundians	-0.220803
-4.418016	bus	-0.2509866
-5.116986	busby	-0.2016818
-3.912866	buses	-0.3101179
-4.116986	bush	-0.2785541
-4.639865	busiest	-0.2787319
-3.639865	business	-0.2028423
-4.639865	businessman	-0.2127222
-4.116986	businessmen	-0.2035882
-4.639865	busy	-0.2785958
-2.499986	but	-0.3059843
-4.213896	butare	-0.4009136
-5.116986	buthelezi	-0.2206802
-4.815956	butler	-0.2012378
-5.116986	buttocks	-0.2202984
-4.037805	buy	-0.1948614
-5.116986	buyers	-0.2205375
-4.213896	buying	-0.331745
-5.116986	buyout	-0.2197367
-4.639865	buys	-0.2056509
-2.233325	by	-0.4196284
-5.116986	bypass	-0.2199595
-4.514926	byron	-0.2635704
-5.116986	bystander	-0.2016818
-5.116986	bystanders	-0.2194272
-5.116986	byumba	-0.2016818
-5.116986	byzantine-era	-0.2208196
-4.271888	c	-0.3227271
-4.815956	c-130	-0.2131141
-4.271888	ca	-0.9715725
-3.970858	cabinet	-0.2045252
-5.116986	cabins	-0.2016818
-5.116986	cable	-0.2131276
-4.815956	cabrera	-0.2920408
-4.815956	cac	-0.3111388
-5.116986	cac-40	-0.220813
-5.116986	cadaver-like	-0.2016818
-5.116986	cadre	-0.2057059
-5.116986	cafe	-0.2206305
-4.116986	cairo	-0.3222057
-5.116986	calculated	-0.2207931
-5.116986	calculation	-0.2182574
-5.116986	calcutta	-0.2016818
-4.162744	caldera	-0.2739557
-5.116986	calendar	-0.2109202
-5.116986	cali	-0.2016818
-4.514926	california	-0.1945293
-3.815956	call	-0.3800983
-3.284477	called	-0.6424235
-3.755258	calling	-0.5698743
-5.116986	callow	-0.2208661
-4.075593	calls	-0.3827478
-4.271888	calm	-0.2238041
-5.116986	calmed	-0.1953286
-4.815956	calmer	-0.2208097
-5.116986	calming	-0.2204977
-5.116986	calvin	-0.2208661
-3.794767	cambodia	-0.2698026
-4.037805	cambodian	-0.3125988
-3.361111	came	-0.5122917
-4.815956	camera	-0.2056956
-4.815956	cameras	-0.2036261
-4.338835	cameroon	-0.2220321
-4.116986	camp	-0.2221817
-3.774563	campaign	-0.2001946
-5.116986	campaigner	-0.2131276
-4.514926	campaigning	-0.2071669
-4.815956	campaigns	-0.2053176
-5.116986	campion	-0.2177465
-3.886537	camps	-0.4849687
-3.284477	can	-0.503475
-3.774563	canada	-0.3685665
-4.213896	canadian	-0.2198032
-4.815956	canal	-0.2189777
-5.116986	canary	-0.2208661
-4.815956	canberra	-0.2145975
-5.116986	cancel	-0.2207566
-5.116986	cancellation	-0.2109202
-4.815956	cancelled	-0.204557
-4.639865	cancer	-0.2557914
-5.116986	cancer-causing	-0.2208627
-4.815956	cancerous	-0.2208627
-3.970858	candidate	-0.2117117
-3.861714	candidates	-0.2338775
-4.815956	cane	-0.1978265
-5.116986	canes	-0.2122453
-4.514926	caniggia	-0.2908812
-4.815956	caning	-0.2188744
-4.815956	cannabis	-0.2126985
-3.838233	cannes	-0.4031421
-5.116986	cannister	-0.2182574
-5.116986	cans	-0.2187877
-4.514926	cantona	-0.2252681
-4.418016	cap	-0.3418109
-4.639865	capabilities	-0.1912458
-5.116986	capability	-0.2109202
-4.815956	capable	-0.205462
-4.418016	capacity	-0.21402
-5.116986	cape	-0.2206437
-5.116986	capita	-0.2208428
-3.284477	capital	-0.4796237
-5.116986	capitalise	-0.2171814
-5.116986	capitalised	-0.218861
-5.116986	capitol	-0.2208495
-4.514926	capsule	-0.2106112
-4.338835	captain	-0.2172695
-5.116986	captains	-0.2206437
-5.116986	captive	-0.2122453
-4.639865	capture	-0.2534053
-4.514926	captured	-0.186927
-3.669828	car	-0.2163916
-5.116986	car-maker	-0.2131276
-4.639865	caracas	-0.2516919
-5.116986	carcani	-0.2131276
-5.116986	cardboard	-0.2208661
-4.639865	carded	-0.2710804
-4.075593	cardenas	-0.2993881
-4.815956	cardiff	-0.2011788
-4.815956	cards	-0.2146648
-4.338835	care	-0.3083358
-4.162744	career	-0.2235373
-5.116986	career-best	-0.2016818
-5.116986	carefully	-0.2208462
-5.116986	carers	-0.2057059
-4.271888	caribbean	-0.2187751
-4.815956	caribbean/usa	-0.3083259
-5.116986	caring	-0.2174523
-5.116986	carl	-0.2208661
-5.116986	carletonville	-0.2016818
-5.116986	carlos	-0.2208627
-5.116986	carnage	-0.2016818
-5.116986	carnegie	-0.2208528
-5.116986	carole	-0.2208661
-4.003043	carolina	-0.2748556
-5.116986	carother	-0.2016818
-4.639865	carothers	-0.1971648
-4.815956	carr	-0.2165285
-3.886537	carried	-0.5992874
-4.271888	carrier	-0.2496229
-4.338835	carriers	-0.1924835
-4.514926	carries	-0.3027295
-5.116986	carrot	-0.2174523
-5.116986	carrried	-0.2202619
-4.162744	carry	-0.2965333
-4.075593	carrying	-0.229811
-3.940895	cars	-0.2888697
-5.116986	cartel	-0.2057059
-4.514926	carter	-0.2363042
-5.116986	cartilage	-0.2189443
-5.116986	cartoon	-0.2208495
-4.815956	carved	-0.3106208
-5.116986	cascarino	-0.2020284
-3.912866	case	-0.8282827
-4.037805	cases	-0.2808678
-4.418016	cash	-0.1843583
-5.116986	cash-strapped	-0.2205375
-4.418016	casino	-0.2171244
-5.116986	caspian	-0.2207897
-5.116986	cast-iron	-0.2208661
-4.338835	casualties	-0.3448218
-5.116986	casualty	-0.2208561
-5.116986	catalonian	-0.2208627
-5.116986	catalonians	-0.2207533
-5.116986	cataract	-0.2208561
-5.116986	cataracts	-0.2194272
-4.514926	catch	-0.2550587
-4.639865	catching	-0.2782238
-4.514926	categories	-0.1873752
-4.271888	cathay	-0.3180033
-5.116986	catherine	-0.2208661
-4.075593	catholic	-0.3431284
-5.116986	catholics	-0.2199595
-5.116986	cattle	-0.2194472
-4.815956	cauayan	-0.2043469
-4.162744	caught	-0.3416848
-4.271888	cause	-0.3125624
-4.003043	caused	-0.1835781
-4.271888	causes	-0.4333787
-4.639865	causing	-0.218771
-4.815956	caution	-0.2182674
-5.116986	cautioned	-0.2204213
-4.639865	cautiously	-0.5116646
-5.116986	caved	-0.2122453
-5.116986	ceased	-0.2104379
-3.297442	ceasefire	-0.5599618
-5.116986	ceasfire	-0.2206205
-5.116986	cedras	-0.2057059
-5.116986	cedric	-0.2208661
-5.116986	celebrate	-0.2057059
-4.639865	celebrated	-0.2169036
-5.116986	celebrating	-0.1953286
-5.116986	celebration	-0.2131276
-4.271888	celebrations	-0.196078
-4.815956	cellular	-0.2207499
-5.116986	celon	-0.2208163
-5.116986	cement	-0.2207333
-4.514926	censorship	-0.2635837
-4.162744	center	-0.2010003
-4.815956	center-right	-0.3112018
-5.116986	centered	-0.2171814
-4.514926	centers	-0.285758
-3.435745	central	-0.4374498
-4.003043	centre	-0.3046352
-4.815956	centrist	-0.205675
-5.116986	cents	-0.2189443
-5.116986	centuries	-0.2104379
-4.037805	century	-0.2953573
-5.116986	century-old	-0.2208661
-5.116986	ceremonies	-0.2183241
-4.075593	ceremony	-0.2111111
-5.116986	cermenica	-0.2016818
-3.794767	certain	-0.3620919
-4.514926	certainly	-0.1949978
-5.116986	certainty	-0.2104379
-4.815956	cesar	-0.2208627
-5.116986	cesare	-0.2208661
-5.116986	cesium	-0.2208661
-4.271888	cessation	-0.9618689
-4.815956	chain	-0.1912778
-4.639865	chair	-0.4965277
-4.815956	chaired	-0.3086831
-3.794767	chairman	-0.5752534
-5.116986	chairs	-0.2057059
-4.815956	chaise	-0.2923874
-4.639865	chakma	-0.2016367
-5.116986	chakravarty	-0.2165553
-5.116986	chalk	-0.2131276
-4.639865	challenge	-0.2665571
-4.815956	challenged	-0.2181539
-4.514926	chamber	-0.2379829
-5.116986	champ	-0.2208561
-3.861714	champion	-0.2186636
-4.418016	champions	-0.235174
-3.970858	championship	-0.2563838
-4.639865	championships	-0.2592107
-3.861714	chance	-0.656856
-4.162744	chancellor	-0.3655638
-4.162744	chances	-0.2135631
-5.116986	chandrikaben	-0.2208661
-3.940895	change	-0.3278468
-4.162744	changed	-0.2233178
-4.162744	changes	-0.234497
-5.116986	changi	-0.2207864
-4.213896	changing	-0.4097811
-5.116986	chanowan	-0.2016818
-4.639865	chaos	-0.2686413
-5.116986	chapel	-0.2016818
-4.815956	chaperon	-0.3069143
-4.514926	characters	-0.3103118
-5.116986	charan	-0.2208661
-3.815956	charge	-0.8305071
-3.970858	charged	-0.7935209
-3.970858	charges	-0.3937159
-5.116986	charging	-0.2131276
-5.116986	charities	-0.2057059
-4.639865	charity	-0.278941
-4.213896	charles	-0.4098442
-4.639865	charlie	-0.2208196
-5.116986	charlotte	-0.220584
-5.116986	charlton	-0.2131276
-5.116986	charm	-0.2179669
-5.116986	charmed	-0.2202718
-5.116986	chartered	-0.2208661
-4.639865	chase	-0.1952688
-4.639865	chased	-0.2125599
-4.815956	chasers	-0.2206471
-4.514926	chasing	-0.1950541
-5.116986	chasm	-0.2057059
-5.116986	chassis	-0.218931
-5.116986	chat	-0.220813
-5.116986	chatham	-0.2208462
-4.514926	chathams	-0.1841742
-5.116986	chavez	-0.2016818
-5.116986	cheated	-0.220803
-4.514926	check	-0.2871313
-5.116986	check-ups	-0.2199029
-5.116986	checked	-0.218861
-5.116986	checkered	-0.220803
-4.639865	checkpoints	-0.1966846
-5.116986	checks	-0.2208627
-5.116986	cheer	-0.2174523
-4.162744	cheered	-0.6581578
-4.815956	cheering	-0.2174456
-4.815956	cheers	-0.2029974
-5.116986	cheese	-0.2208495
-5.116986	cheever	-0.2016818
-4.815956	chelmsford	-0.218551
-4.514926	chelsea	-0.2600653
-4.514926	chemical	-0.4184075
-5.116986	chemical1	-0.2104379
-3.625624	chen	-0.4409206
-5.116986	cheng	-0.2016818
-5.116986	cheong	-0.2208329
-4.514926	chereau	-0.2252681
-4.162744	chernomyrdin	-0.2313887
-5.116986	chest	-0.2205541
-5.116986	chewed	-0.2206437
-5.116986	chi	-0.2208661
-5.116986	chiaki	-0.2208661
-4.639865	chicken	-0.1904424
-3.548784	chief	-0.2504404
-5.116986	chiefly	-0.2104379
-4.162744	chiefs	-0.3375705
-4.338835	child	-0.2087901
-5.116986	childhood	-0.2131276
-3.560683	children	-0.2776292
-4.639865	chile	-0.2011024
-4.815956	chilean	-0.220408
-5.116986	chilly	-0.2208561
-2.999715	china	-0.4440901
-3.247754	chinese	-0.3750766
-4.639865	chinese-americans	-0.2582792
-4.815956	chinse	-0.3108234
-5.116986	chip	-0.2171814
-5.116986	chipped	-0.2122453
-4.815956	chips	-0.2207665
-4.213896	choice	-0.2172425
-4.815956	choices	-0.1858208
-5.116986	choked	-0.2131276
-5.116986	choose	-0.2199595
-4.639865	choosing	-0.2184108
-5.116986	chorus	-0.2109202
-5.116986	chose	-0.2208594
-4.815956	chosen	-0.2023643
-4.271888	chretien	-0.2368312
-4.639865	chris	-0.278941
-4.213896	christian	-0.2535876
-4.213896	christians	-0.4397264
-3.654588	christopher	-0.3181749
-4.418016	chronic	-0.2915202
-5.116986	chryssi	-0.2208661
-4.815956	chu	-0.3112118
-5.116986	chudasama	-0.2057059
-5.116986	chung	-0.2208661
-4.003043	church	-0.3754842
-4.815956	churches	-0.3034866
-5.116986	churchill	-0.2208661
-4.213896	cigarette	-0.2307284
-4.639865	cigarettes	-0.1824706
-5.116986	cimetidine	-0.2016818
-4.162744	cinema	-0.238969
-5.116986	cinema-goers	-0.2171814
-5.116986	cinematic	-0.2208661
-5.116986	circle	-0.2171111
-4.815956	circled	-0.1946456
-4.213896	circuit	-0.3261949
-4.514926	circuits	-0.1857345
-5.116986	circulated	-0.2057059
-5.116986	circumcised	-0.218861
-5.116986	circumciser	-0.2199595
-4.639865	circumcision	-0.1953955
-5.116986	circumstances	-0.2057059
-5.116986	circus	-0.2057059
-5.116986	cirumstances	-0.2016818
-5.116986	cis	-0.2179669
-4.418016	cited	-0.2187111
-5.116986	citibank	-0.2208263
-4.514926	cities	-0.2070334
-4.418016	citing	-0.1868302
-5.116986	citizen	-0.2122453
-3.912866	citizens	-0.2084439
-3.39271	city	-0.489387
-5.116986	city.	-0.2122453
-5.116986	civic	-0.2204811
-3.537203	civil	-1.322884
-4.639865	civilian	-0.2711379
-5.116986	civilian-military	-0.2208627
-3.861714	civilians	-0.220342
-4.815956	civility	-0.3111753
-5.116986	claes	-0.2016818
-5.116986	claiborne	-0.2208594
-4.075593	claim	-0.2174906
-4.003043	claimed	-0.2455673
-4.271888	claiming	-0.2875899
-4.003043	claims	-0.2139964
-5.116986	clan	-0.2206305
-5.116986	clans	-0.2057059
-5.116986	clapped	-0.2131276
-5.116986	clarence	-0.2208296
-4.271888	clarification	-0.2728034
-5.116986	clarifications	-0.2171111
-4.815956	clarify	-0.218007
-4.514926	clark	-0.1797622
-4.639865	clarke	-0.2516919
-4.514926	clash	-0.1901078
-3.861714	clashes	-0.3091805
-4.815956	class	-0.1976866
-5.116986	classes	-0.2205807
-4.639865	classic	-0.2095739
-5.116986	classification	-0.2171814
-5.116986	classroom	-0.2208627
-5.116986	claude	-0.2208329
-4.815956	claudio	-0.3112151
-4.815956	clause	-0.2074236
-5.116986	clauses	-0.2109202
-4.213896	clay	-0.2063572
-5.116986	clays	-0.2179669
-4.514926	clean	-0.2124923
-5.116986	clean-cut	-0.2208428
-5.116986	cleaning	-0.2016818
-5.116986	cleansed	-0.2171111
-4.815956	cleansing	-0.2202918
-3.719046	clear	-0.2082859
-4.418016	clearance	-0.2836556
-4.639865	cleared	-0.2428742
-4.514926	clearing	-0.2636003
-4.162744	clearly	-0.2475331
-5.116986	clears	-0.2206902
-5.116986	clemency	-0.2183241
-5.116986	clenched	-0.2208661
-5.116986	clergyman	-0.2016818
-4.639865	clerk	-0.273459
-5.116986	clicked	-0.2205906
-5.116986	client	-0.2207732
-5.116986	climax	-0.2020284
-4.639865	climb	-0.2008488
-4.639865	climbed	-0.2083533
-5.116986	climbing	-0.2208661
-5.116986	clinch	-0.2192807
-5.116986	clinched	-0.2129892
-4.639865	clinic	-0.1972244
-5.116986	clinical	-0.2208428
-4.815956	clint	-0.2208495
-3.030626	clinton	-0.4862978
-4.815956	clitoris	-0.2131107
-5.116986	clock	-0.2208495
-5.116986	clocked	-0.218861
-3.444888	close	-0.5701756
-3.755258	closed	-0.2331369
-4.815956	closely	-0.2208594
-4.213896	closer	-0.3074464
-4.639865	closes	-0.2205109
-5.116986	closest	-0.2104379
-4.338835	closing	-0.2162771
-4.815956	closure	-0.2108319
-5.116986	cloth	-0.2131276
-5.116986	clothes	-0.2057059
-4.815956	clothing	-0.220813
-4.815956	clown	-0.1858208
-3.970858	club	-0.2938578
-5.116986	clubbed	-0.2204479
-4.514926	clubs	-0.2032324
-5.116986	clydebank	-0.21976
-4.815956	cnb	-0.2136238
-5.116986	cnn	-0.2208428
-4.639865	co	-0.2618033
-5.116986	co-founder	-0.2109202
-5.116986	co-leader	-0.2208561
-4.639865	co.	-0.2177798
-4.514926	coach	-0.2208362
-4.213896	coalition	-0.2258075
-4.162744	coast	-0.2016175
-5.116986	coastal	-0.2207665
-4.162744	cocaine	-0.3607511
-5.116986	cocked	-0.2192807
-4.815956	cockpit	-0.2197234
-4.815956	cockpits	-0.2094275
-4.418016	cocoa	-0.1977356
-4.815956	code	-0.2169438
-4.639865	code-named	-0.278951
-5.116986	coded	-0.2208561
-5.116986	coe	-0.2204147
-5.116986	coen	-0.2057059
-4.338835	coffee	-0.1970667
-5.116986	coffers	-0.2016818
-5.116986	cohabitation	-0.218931
-5.116986	coincided	-0.2187877
-5.116986	coincidence	-0.2181038
-5.116986	coined	-0.1953286
-5.116986	cold	-0.2122453
-5.116986	colinas	-0.2194039
-4.639865	collapse	-0.5017419
-4.338835	collapsed	-0.3703825
-4.815956	colleague	-0.2171714
-5.116986	colleagues	-0.2199595
-4.815956	collect	-0.2130939
-5.116986	collective	-0.2208661
-4.418016	college	-0.2082509
-5.116986	collines	-0.2208097
-4.418016	colombia	-0.2163386
-4.338835	colombian	-0.2477615
-4.116986	colonel	-0.3279397
-4.514926	colony	-0.1944094
-5.116986	colorado	-0.2016818
-5.116986	colorectal	-0.2208594
-4.514926	colosio	-0.2539168
-5.116986	colt	-0.2177465
-4.514926	columbia	-0.1906559
-5.116986	column	-0.2016818
-4.338835	coma	-0.2388688
-5.116986	combat	-0.2205043
-5.116986	combatants	-0.2194472
-5.116986	combination	-0.2208661
-5.116986	combinations	-0.2131276
-4.639865	combined	-0.2186443
-3.560683	come	-0.2936694
-5.116986	comeback	-0.2057059
-5.116986	comedy	-0.2205807
-4.213896	comes	-0.2495382
-5.116986	comex	-0.2122453
-5.116986	comfort	-0.2207831
-5.116986	comfortable	-0.2131276
-3.970858	coming	-0.2741206
-4.003043	command	-0.2456565
-3.912866	commander	-0.332561
-4.639865	commanding	-0.2128337
-5.116986	commandos	-0.2208594
-5.116986	commands	-0.2129892
-5.116986	commence	-0.2202851
-5.116986	commensurate	-0.2187877
-4.037805	comment	-0.4831535
-5.116986	commentator	-0.2208661
-4.639865	commented	-0.2021704
-4.815956	commenting	-0.3075404
-4.116986	comments	-0.1835275
-4.338835	commerce	-0.220278
-4.162744	commercial	-0.2051835
-4.815956	commerzbank	-0.2165017
-3.611836	commission	-0.3249287
-3.940895	commissioner	-0.9126983
-4.815956	commissioners	-0.2006508
-5.116986	commit	-0.220813
-4.514926	commitment	-0.4065244
-4.514926	commitments	-0.1904389
-5.116986	committe	-0.2109202
-4.639865	committed	-0.2077725
-3.702013	committee	-0.2892996
-5.116986	committees	-0.2204147
-4.514926	commmittee	-0.2919402
-5.116986	commodities	-0.2207234
-4.116986	common	-0.3003355
-4.815956	commons	-0.2015917
-4.815956	commonwealth	-0.3012792
-5.116986	communal	-0.2208528
-4.639865	communication	-0.5116447
-3.912866	communications	-0.3130228
-4.162744	communique	-0.2519427
-5.116986	communiques	-0.2207798
-3.940895	communist	-0.7851211
-4.514926	communists	-0.235296
-3.794767	community	-0.3033966
-3.585507	companies	-0.2394395
-5.116986	companion	-0.2122453
-3.504202	company	-0.1930591
-4.815956	compaq	-0.218841
-5.116986	comparatively	-0.2179669
-3.755258	compared	-1.568398
-4.815956	comparison	-0.3091467
-4.639865	compatriot	-0.2015674
-5.116986	compensated	-0.2174523
-4.514926	compensation	-0.3960761
-4.815956	compete	-0.2169438
-4.815956	competent	-0.3034866
-3.794767	competition	-0.3045616
-4.514926	competitive	-0.2164179
-5.116986	competitor	-0.2016818
-5.116986	competitors	-0.2104379
-5.116986	compilation	-0.2207964
-4.639865	compiled	-0.208425
-4.815956	complain	-0.2178333
-4.418016	complained	-0.4259335
-4.815956	complaining	-0.2088652
-5.116986	complaints	-0.2189443
-3.886537	complete	-0.3063206
-3.970858	completed	-0.3097653
-4.815956	completely	-0.3075404
-5.116986	completion	-0.2109202
-4.639865	complex	-0.197865
-4.639865	compliance	-0.5096095
-5.116986	complicate	-0.1953286
-5.116986	complied	-0.2187877
-4.815956	comply	-0.3091467
-4.639865	composed	-0.5017419
-4.338835	compound	-0.213067
-4.514926	comprehensive	-0.2632882
-5.116986	comprises	-0.2207068
-4.514926	compromise	-0.2067182
-5.116986	compromises	-0.2122453
-5.116986	comptroller	-0.2109202
-5.116986	compulsory	-0.2207897
-4.338835	computer	-0.220584
-4.514926	comrades	-0.5107862
-5.116986	concaine	-0.2208561
-5.116986	concealed	-0.2169739
-4.639865	conceded	-0.2759949
-5.116986	conceived	-0.1953286
-5.116986	concentrate	-0.2171814
-4.815956	concentrated	-0.2084831
-4.639865	concentrating	-0.5080032
-5.116986	concentration	-0.2016818
-4.639865	concept	-0.2689605
-3.912866	concern	-0.2299161
-4.639865	concerned	-0.217362
-4.639865	concerning	-0.1952723
-4.075593	concerns	-0.1988976
-5.116986	concerted	-0.2202253
-4.815956	concessions	-0.2066599
-4.639865	conclude	-0.2100333
-4.639865	concluded	-0.2450713
-5.116986	concludes	-0.2207566
-4.639865	concrete	-0.218721
-4.639865	concubine	-0.2599184
-5.116986	concussion	-0.2131276
-4.639865	condemn	-0.2533947
-4.639865	condemnation	-0.5017419
-4.514926	condemned	-0.2483163
-3.970858	condition	-0.1891981
-4.815956	conditional	-0.3075404
-5.116986	conditionality	-0.2171814
-3.794767	conditions	-0.2211061
-4.418016	condolences	-0.5716744
-4.815956	conducive	-0.3007969
-4.418016	conduct	-0.2039849
-5.116986	conducted	-0.2016818
-4.418016	conducting	-0.4345804
-5.116986	conducts	-0.2203648
-4.639865	confederation	-0.2597069
-5.116986	confederations	-0.2131276
-3.39271	conference	-0.2837418
-4.815956	conferences	-0.2203482
-5.116986	confessing	-0.2208594
-4.514926	confidence	-0.206293
-5.116986	confidence-building	-0.2207765
-4.639865	confident	-0.19877
-5.116986	configured	-0.2208528
-4.213896	confirm	-0.3727849
-4.639865	confirmation	-0.2182974
-3.736775	confirmed	-0.2570425
-5.116986	confiscated	-0.2201223
-3.525922	conflict	-0.3037816
-4.815956	conflicting	-0.3111852
-4.815956	conflicts	-0.1996696
-5.116986	conforms	-0.2104379
-4.815956	confrontations	-0.197753
-5.116986	confronted	-0.2207566
-4.639865	confucian	-0.5116414
-4.639865	confucian-influenced	-0.5116746
-5.116986	confuscius	-0.2206537
-3.940895	confusion	-0.3823656
-4.639865	congested	-0.4965277
-4.815956	congestion	-0.2036261
-4.815956	congratulations	-0.1948992
-3.755258	congress	-0.2666482
-4.815956	congressional	-0.2207698
-5.116986	conjunction	-0.2187877
-5.116986	conjures	-0.2201223
-4.639865	connected	-0.5012597
-4.213896	connection	-0.3159591
-4.338835	connections	-0.2157718
-5.116986	conned	-0.2183241
-5.116986	conquer	-0.2208362
-5.116986	conquered	-0.2203183
-5.116986	conquerors	-0.2109202
-4.815956	conquest	-0.1976866
-5.116986	consciousness	-0.2208594
-5.116986	conscripted	-0.2104379
-5.116986	conscripts	-0.2208661
-4.514926	consecutive	-0.220109
-4.514926	consensus	-0.2919298
-4.271888	consensus-builder	-0.4052736
-5.116986	consent	-0.2109202
-4.213896	consequences	-0.2993984
-5.116986	consequent	-0.2208329
-4.639865	consequently	-0.2789078
-3.736775	conservative	-0.3664239
-5.116986	conservative-dominated	-0.2208395
-4.815956	conservatives	-0.1976866
-4.037805	consider	-0.2056523
-5.116986	considerable	-0.2208395
-4.815956	consideration	-0.197753
-4.815956	considerations	-0.2029974
-4.037805	considered	-0.1682222
-4.338835	considering	-0.2046397
-4.418016	considers	-0.2542407
-5.116986	consistency	-0.2016818
-4.418016	consistent	-0.244435
-5.116986	consistently	-0.2208661
-5.116986	consolation	-0.2208594
-5.116986	consolidated	-0.2208495
-4.418016	consortium	-0.1933327
-4.815956	conspiring	-0.3007969
-5.116986	constantly	-0.2208196
-5.116986	constitute	-0.2208561
-4.037805	constitution	-0.3210095
-4.639865	constitutional	-0.2789311
-5.116986	constraints	-0.2207864
-4.213896	construction	-0.3205568
-4.815956	constructive	-0.2015674
-5.116986	constructively	-0.2131276
-5.116986	constructor	-0.2204279
-4.639865	consular	-0.2207698
-5.116986	consult	-0.2203515
-5.116986	consultation	-0.2204877
-4.514926	consultations	-0.2137992
-4.815956	consultative	-0.2205209
-5.116986	consulted	-0.2204014
-4.815956	consulting	-0.3111421
-3.719046	consumer	-0.6116709
-5.116986	consumers	-0.2016818
-4.815956	consumption	-0.2111543
-4.162744	contact	-0.4003924
-4.815956	contacted	-0.2155255
-5.116986	contacting	-0.2207566
-4.162744	contacts	-0.3100438
-5.116986	contain	-0.2207002
-5.116986	containers	-0.2016818
-5.116986	containing	-0.2208594
-5.116986	contamination	-0.2016818
-4.815956	contemplated	-0.3034866
-5.116986	contempt	-0.2016818
-4.815956	contend	-0.2856876
-5.116986	contender	-0.2194938
-4.338835	contenders	-0.2162012
-5.116986	contends	-0.218931
-4.514926	content	-0.4075981
-5.116986	contention	-0.2057059
-4.639865	contest	-0.1937389
-5.116986	contestants	-0.2189443
-4.213896	contingent	-0.2988519
-4.815956	contingents	-0.195399
-4.815956	continuation	-0.3012792
-3.719046	continue	-0.4329572
-3.685622	continued	-0.4459117
-4.213896	continues	-0.2210808
-3.940895	continuing	-0.3123426
-4.815956	continuously	-0.2206404
-5.116986	contraband	-0.2171111
-4.075593	contract	-0.2635345
-5.116986	contractor	-0.2199595
-4.815956	contracts	-0.2036261
-5.116986	contradicting	-0.219567
-4.514926	contradictory	-0.2429699
-5.116986	contrary	-0.2104379
-5.116986	contrast	-0.2104379
-5.116986	contrasted	-0.2187877
-4.815956	contrasts	-0.3091467
-5.116986	contravene	-0.2207367
-4.815956	contributed	-0.3007969
-5.116986	contributing	-0.2104379
-5.116986	contribution	-0.2109202
-4.815956	contributor	-0.3007969
-3.304073	control	-0.6291479
-4.418016	controlled	-0.1805674
-5.116986	controlling	-0.2207798
-4.116986	controls	-0.1775012
-4.162744	controversial	-0.2540638
-4.514926	controversy	-0.2015674
-4.514926	convention	-0.1955573
-5.116986	conventional	-0.2208528
-4.815956	convergence	-0.2070745
-5.116986	conversation	-0.2016818
-5.116986	conversion	-0.2208395
-5.116986	converted	-0.2208627
-3.970858	convicted	-0.576091
-4.815956	convicting	-0.3108567
-5.116986	conviction	-0.2204678
-4.815956	convictions	-0.2105365
-4.514926	convince	-0.1945716
-4.418016	convinced	-0.2464924
-5.116986	convincing	-0.2205309
-5.116986	convincingly	-0.2205209
-4.514926	convoy	-0.2088618
-4.815956	convoys	-0.3034866
-5.116986	cook	-0.2016818
-5.116986	cooperate	-0.2057059
-5.116986	cooperating	-0.2187877
-3.970858	cooperation	-0.3553703
-4.639865	cooperative	-0.1995407
-4.815956	cooperatively	-0.3112118
-5.116986	coordinate	-0.2131276
-5.116986	coordinated	-0.2189443
-4.815956	coordinates	-0.3111288
-4.815956	coordinating	-0.2206504
-4.213896	coordination	-0.4604136
-5.116986	coordinator	-0.2206836
-4.639865	cope	-0.5096095
-4.639865	copenhagen	-0.2593738
-4.075593	copper	-0.1613934
-5.116986	copperative	-0.2207599
-5.116986	cops	-0.2203881
-5.116986	copy	-0.2192807
-5.116986	cordial	-0.2171111
-4.815956	cork	-0.2136238
-4.639865	corner	-0.1953356
-5.116986	cornered	-0.2201223
-5.116986	corners	-0.2057059
-5.116986	coroner	-0.2177465
-4.639865	corp	-0.197557
-4.418016	corp.	-0.3491419
-5.116986	corporal	-0.2208627
-4.815956	corporate	-0.22074
-4.338835	corporation	-0.3104332
-4.815956	corpses	-0.217178
-4.162744	correct	-0.2960365
-5.116986	corrected	-0.2208561
-5.116986	correcting	-0.2208627
-4.639865	correction	-0.218581
-5.116986	correctional	-0.2207068
-5.116986	correspondant	-0.2165553
-4.514926	correspondent	-0.4100356
-5.116986	corresponding	-0.220813
-5.116986	corridors	-0.2174523
-5.116986	corrupt	-0.2208296
-4.003043	corruption	-0.2694459
-5.116986	corsica	-0.21976
-4.815956	coruna	-0.2010226
-4.815956	cosmetics	-0.1976866
-3.940895	cost	-0.1838401
-5.116986	costly	-0.2207765
-4.037805	costs	-0.2515522
-5.116986	cosworth	-0.2177465
-5.116986	cosworth-powered	-0.2208661
-4.514926	cotton	-0.2184543
-5.116986	cotton-growing	-0.2208097
-5.116986	cottonwood	-0.2208661
-5.116986	cottrell	-0.2165553
-3.0488	could	-0.4147356
-3.400983	council	-0.1914263
-5.116986	councils	-0.2197367
-4.815956	counsel	-0.2183375
-5.116986	counselling	-0.2131276
-4.815956	count	-0.2071464
-4.514926	counter	-0.2102544
-5.116986	counter-claim	-0.2016818
-5.116986	counter-claims	-0.2016818
-5.116986	counter-espionage	-0.2208561
-5.116986	counter-insurgency	-0.2205674
-5.116986	counter-offensive	-0.2131276
-4.514926	counter-revolutionary	-0.5116663
-5.116986	counteract	-0.1953286
-5.116986	countering	-0.1953286
-4.213896	counterpart	-0.2416157
-4.213896	counterparts	-0.2437338
-5.116986	countervailing	-0.2207333
-3.230495	countries	-0.4019454
-3.134715	country	-0.6364245
-5.116986	countryside	-0.2202253
-4.815956	counts	-0.1912778
-4.815956	county	-0.2207466
-4.338835	coup	-0.2313454
-4.271888	couple	-0.2134874
-5.116986	coupon	-0.22074
-5.116986	coups	-0.2122453
-4.815956	courier	-0.2104685
-3.970858	course	-0.2905602
-4.418016	courses	-0.2075662
-3.09168	court	-0.3608288
-5.116986	courtney	-0.2208561
-4.514926	courts	-0.2271126
-5.116986	cousins	-0.2016818
-5.116986	coutries	-0.2208661
-5.116986	coventry	-0.2057059
-4.075593	cover	-0.2023427
-5.116986	coverage	-0.2204014
-4.418016	covered	-0.1933327
-4.815956	covering	-0.2122318
-4.815956	covers	-0.2204844
-4.815956	coveted	-0.3086831
-4.815956	cow	-0.2170911
-4.815956	crab	-0.3075404
-5.116986	crack	-0.2109202
-4.514926	crackdown	-0.4123585
-5.116986	cracks	-0.2204479
-5.116986	craft	-0.2122453
-5.116986	crafter	-0.2179669
-5.116986	crammed	-0.2204445
-3.861714	crash	-0.2992867
-4.514926	crashed	-0.2623941
-4.418016	crashes	-0.1638176
-4.514926	craxi	-0.1901897
-4.514926	create	-0.2551569
-4.338835	created	-0.174656
-5.116986	creates	-0.2205641
-4.418016	creating	-0.2503369
-4.213896	creation	-0.9442933
-4.418016	credibility	-0.2262926
-5.116986	credible	-0.2205309
-4.116986	credit	-0.2978823
-5.116986	creditable	-0.2208661
-5.116986	credited	-0.2187877
-5.116986	credits	-0.2206968
-4.639865	crew	-0.1999934
-4.418016	cricket	-0.2186344
-4.213896	crime	-0.241499
-4.815956	crimea	-0.2920408
-4.514926	crimes	-0.4036619
-4.162744	criminal	-0.3879813
-4.815956	criminals	-0.3074701
-5.116986	crippled	-0.2183241
-5.116986	crippling	-0.2208063
-5.116986	crises	-0.2206869
-3.970858	crisis	-0.1642971
-5.116986	cristina	-0.2208661
-4.418016	criteria	-0.2071888
-4.815956	critic	-0.2109066
-4.639865	critical	-0.2789211
-4.815956	criticised	-0.2207931
-4.815956	criticises	-0.2208462
-5.116986	criticising	-0.1953286
-4.338835	criticism	-0.3810747
-4.815956	criticized	-0.1952759
-4.815956	critics	-0.2036261
-5.116986	critique	-0.2109202
-4.815956	croat-moslem	-0.3111587
-4.514926	croatia	-0.2398023
-4.815956	croatian	-0.2201954
-5.116986	croatians	-0.2204147
-4.116986	croats	-0.7498931
-4.514926	croisette	-0.2925259
-4.514926	croll	-0.414287
-5.116986	crop	-0.2197367
-5.116986	crops	-0.2109202
-3.861714	cross	-0.297144
-5.116986	cross-border	-0.2208395
-3.886537	crossed	-0.7331971
-5.116986	crosses	-0.2016818
-4.815956	crossfire	-0.3097862
-4.338835	crossing	-0.3518926
-3.912866	crowd	-0.4880215
-5.116986	crowded	-0.22073
-4.815956	crowds	-0.2207997
-4.815956	crown	-0.2035501
-5.116986	crowns	-0.2057059
-4.639865	crucial	-0.2055582
-4.639865	crude	-0.2786689
-5.116986	cruelly	-0.2208362
-5.116986	cruise	-0.2207864
-5.116986	cruised	-0.2104379
-5.116986	cruises	-0.2204445
-5.116986	crusade	-0.2104379
-5.116986	crush	-0.1953286
-4.639865	crushed	-0.2597069
-5.116986	crushing	-0.2207533
-4.815956	cruyff	-0.2099483
-5.116986	cruz	-0.2016818
-5.116986	cuahtemoc	-0.2208329
-4.815956	cuba	-0.2054276
-4.271888	cuban	-0.2445575
-4.815956	cubic	-0.3111653
-4.639865	cui	-0.5116746
-4.815956	culminated	-0.3026043
-4.815956	culminating	-0.3026043
-5.116986	culmination	-0.2109202
-5.116986	culprit	-0.2057059
-4.815956	culprits	-0.3086831
-5.116986	cultivation	-0.2204943
-4.213896	cultural	-0.4021346
-4.514926	culture	-0.2919888
-3.560683	cup	-0.3260261
-5.116986	cups	-0.2016818
-4.514926	curb	-0.2381272
-4.116986	currencies	-0.336764
-3.940895	currency	-0.2243336
-3.611836	current	-0.2541643
-3.736775	currently	-0.2824554
-5.116986	curtail	-0.2206437
-4.815956	curtailed	-0.2199628
-5.116986	curtis	-0.2131276
-4.815956	custody	-0.2108421
-4.815956	custom	-0.2204545
-4.514926	customs	-0.2184342
-3.473533	cut	-0.3455
-5.116986	cut-out	-0.2208627
-3.886537	cuts	-0.3721824
-4.639865	cutter	-0.2552767
-4.338835	cutting	-0.3152482
-4.815956	cycle	-0.218831
-5.116986	cyprien	-0.2208661
-4.213896	cyprus	-0.3322153
-5.116986	cyril	-0.2208097
-5.116986	cyrus	-0.2208661
-5.116986	czech	-0.2207831
-5.116986	d'affaires	-0.2131276
-4.639865	d'or	-0.1887275
-5.116986	d.j.	-0.2208661
-5.116986	d.k.	-0.2208661
-5.116986	da	-0.2208661
-4.815956	daghe	-0.2005222
-5.116986	dahllof	-0.2179669
-4.514926	dahuk	-0.2270909
-4.815956	dai	-0.3074701
-3.736775	daily	-0.3717357
-5.116986	daimler	-0.2206769
-5.116986	dale	-0.2208661
-3.815956	daleh	-0.2993518
-4.639865	dallas	-0.1842572
-3.940895	damage	-0.4022621
-4.639865	damaged	-0.2199993
-4.639865	damaging	-0.2767025
-4.338835	damascus	-0.2510096
-5.116986	dampen	-0.2208627
-5.116986	dampened	-0.2203682
-5.116986	dan	-0.2208561
-5.116986	dana	-0.2020284
-5.116986	danang	-0.2171814
-5.116986	dance	-0.2171814
-5.116986	danced	-0.2057059
-5.116986	dane	-0.2177465
-4.271888	danger	-0.3403035
-4.815956	dangerous	-0.1981098
-4.815956	dangers	-0.3012792
-4.815956	daniel	-0.3112217
-4.815956	daniele	-0.3112184
-4.815956	danielle	-0.3112051
-4.514926	danish	-0.2130466
-5.116986	danish-run	-0.220813
-4.815956	daria	-0.1976866
-5.116986	darkest	-0.2208462
-4.639865	darkness	-0.2017685
-5.116986	darren	-0.2208661
-5.116986	darted	-0.2207964
-5.116986	darwin	-0.2057059
-5.116986	dashed	-0.2208462
-4.639865	data	-0.1977775
-5.116986	database	-0.2057059
-4.003043	date	-0.3019665
-4.418016	dateline	-0.5792034
-4.639865	dates	-0.1862485
-4.514926	daughter	-0.3892441
-4.815956	daughters	-0.19937
-5.116986	dave	-0.2208362
-4.162744	david	-0.2207798
-4.639865	davies	-0.215334
-5.116986	dawdle	-0.2104379
-4.003043	dawn	-0.2528962
-5.116986	dawood	-0.2208395
-4.639865	dax	-0.5116149
-3.099953	day	-0.5178239
-4.815956	dayan	-0.2920408
-3.483518	days	-0.4202664
-5.116986	dc-10	-0.2207997
-3.861714	de	-0.3021794
-5.116986	deactivation	-0.2109202
-3.736775	dead	-0.3588751
-5.116986	deadline	-0.2182574
-5.116986	deadlines	-0.2057059
-5.116986	deadlocked	-0.2204811
-5.116986	deadly	-0.2057059
-3.572918	deal	-0.6368409
-4.003043	dealers	-0.4584786
-4.639865	deals	-0.2768758
-4.639865	dealt	-0.2689741
-5.116986	dean	-0.2208627
-5.116986	deane	-0.2165553
-5.116986	deases	-0.2208561
-3.265728	death	-0.4393062
-4.162744	deaths	-0.2761649
-5.116986	debased	-0.2183241
-3.861714	debate	-0.1510768
-5.116986	debated	-0.2208594
-5.116986	debt	-0.2109202
-5.116986	debts	-0.2187877
-5.116986	debut	-0.2204213
-4.815956	decade	-0.2055822
-4.338835	decades	-0.4669929
-4.815956	decades-old	-0.2206802
-5.116986	deceased	-0.2208661
-3.815956	december	-0.2402252
-4.815956	decency	-0.2005222
-5.116986	decent	-0.2207798
-5.116986	decibed	-0.2183241
-4.271888	decide	-0.2144461
-3.669828	decided	-0.557186
-4.815956	deciding	-0.2129689
-3.525922	decision	-0.3734096
-5.116986	decision-making	-0.2208661
-4.213896	decisions	-0.2149029
-4.514926	decisive	-0.2449799
-3.940895	declaration	-0.3328598
