
\data\
ngram 1=32
ngram 2=42
ngram 3=1

\1-grams:
-1.676408	's	-0.01708213
-1.084648	.	-0.661675
-1.084648	</s>
-99	<s>	0.03170384
-1.676408	a	-0.00793254
-1.676408	about	-0.00793254
-1.382217	am	-0.007634163
-1.382217	are	-0.4587249
-1.676408	as	-0.00793254
-1.382217	bad	0.03105077
-1.676408	boy	-0.00793254
-1.382217	but	0.00171884
-1.382217	good	0.00171884
-1.382217	i	-0.4587249
-1.676408	if	-0.00793254
-1.676408	is	-0.01708213
-1.676408	let	-0.01708213
-1.676408	madnani	0.01096606
-1.676408	my	-0.01708213
-1.676408	name	-0.01708213
-1.676408	nitin	-0.01708213
-1.676408	not	0.01096606
-1.676408	or	-0.01708213
-1.676408	see	-0.01708213
-1.382217	some	0.01127771
-1.676408	sometimes	-0.00793254
-1.676408	then	-0.00793254
-1.382217	there	-0.4587249
-1.382217	things	-0.007634163
-1.382217	this	0.00171884
-1.382217	well	0.02105172
-1.676408	works	-0.00793254

\2-grams:
-1.230449	's see
-0.09691001	. </s>
-1.832509	<s> i
-1.832509	<s> let
-1.832509	<s> my
-1.832509	<s> there
-1.230449	a good
-1.230449	about this
-1.531479	am a
-1.531479	am sometimes
-0.1760913	are some
-1.230449	as well
-1.531479	bad .
-1.531479	bad things
-1.230449	boy but
-1.531479	but i
-1.531479	but then
-1.531479	good boy
-1.531479	good things
-0.1760913	i am
-1.230449	if this
-1.230449	is nitin
-1.230449	let 's
-1.230449	madnani .
-1.230449	my name
-1.230449	name is
-1.230449	nitin madnani
-1.230449	not .
-1.230449	or not
-1.230449	see if
-1.531479	some bad
-1.531479	some good
-1.230449	sometimes bad
-1.230449	then there
-0.1760913	there are	0
-1.531479	things about
-1.531479	things as
-1.531479	this but
-1.531479	this works
-1.531479	well .
-1.531479	well or
-1.230449	works well

\3-grams:
-0.1760913	there are some

\end\
